{"learner":{"attributes":{"scikit_learn":"{\"_estimator_type\": \"classifier\"}"},"feature_names":["velocity_24h","structuring_count_24h","std_dev_24h","amount"],"feature_types":["int","int","float","float"],"gradient_booster":{"model":{"gbtree_model_param":{"num_parallel_tree":"1","num_trees":"100"},"iteration_indptr":[0,1,2,3,4,5,6,7,8,9,10,11,12,13,14,15,16,17,18,19,20,21,22,23,24,25,26,27,28,29,30,31,32,33,34,35,36,37,38,39,40,41,42,43,44,45,46,47,48,49,50,51,52,53,54,55,56,57,58,59,60,61,62,63,64,65,66,67,68,69,70,71,72,73,74,75,76,77,78,79,80,81,82,83,84,85,86,87,88,89,90,91,92,93,94,95,96,97,98,99,100],"tree_info":[0,0,0,0,0,0,0,0,0,0,0,0,0,0,0,0,0,0,0,0,0,0,0,0,0,0,0,0,0,0,0,0,0,0,0,0,0,0,0,0,0,0,0,0,0,0,0,0,0,0,0,0,0,0,0,0,0,0,0,0,0,0,0,0,0,0,0,0,0,0,0,0,0,0,0,0,0,0,0,0,0,0,0,0,0,0,0,0,0,0,0,0,0,0,0,0,0,0,0,0],"trees":[{"base_weights":[-1.3615932E-1,-1.3038967E0,4.034234E-1,-1.1983556E0,-1.3294175E-1,-1.153894E0,-1.3282023E-1,-1.16285406E-1,3.7909575E-2],"categories":[],"categories_nodes":[],"categories_segments":[],"categories_sizes":[],"default_left":[0,0,0,0,0,0,0,0,0],"id":0,"left_children":[1,3,-1,5,-1,7,-1,-1,-1],"loss_changes":[1.2937606E5,5.4308594E1,0E0,2.1858398E1,0E0,4.200171E1,0E0,0E0,0E0],"parents":[2147483647,0,0,1,1,3,3,5,5],"right_children":[2,4,-1,6,-1,8,-1,-1,-1],"split_conditions":[1E0,9.5961E2,4.034234E-1,5.0433685E2,-1.3294175E-1,3E0,-1.3282023E-1,-1.16285406E-1,3.7909575E-2],"split_indices":[1,3,0,2,0,0,0,0,0],"split_type":[0,0,0,0,0,0,0,0,0],"sum_hessian":[2.6564262E4,2.0753762E4,5.8105015E3,4.0505737E3,1.6703188E4,3.0247415E3,1.0258322E3,3.007405E3,1.7336433E1],"tree_param":{"num_deleted":"0","num_feature":"4","num_nodes":"9","size_leaf_vector":"1"}},{"base_weights":[-1.3598302E-1,-1.2618154E0,3.0269814E-1,-1.1526784E0,-1.2883973E-1,-1.1070641E0,-1.287169E-1,-1.11619644E-1,3.3685196E-2],"categories":[],"categories_nodes":[],"categories_segments":[],"categories_sizes":[],"default_left":[0,0,0,0,0,0,0,0,0],"id":1,"left_children":[1,3,-1,5,-1,7,-1,-1,-1],"loss_changes":[9.354641E4,5.4716797E1,0E0,2.1911621E1,0E0,3.7927734E1,0E0,0E0,0E0],"parents":[2147483647,0,0,1,1,3,3,5,5],"right_children":[2,4,-1,6,-1,8,-1,-1,-1],"split_conditions":[1E0,9.5961E2,3.0269814E-1,5.0433685E2,-1.2883973E-1,3E0,-1.287169E-1,-1.11619644E-1,3.3685196E-2],"split_indices":[1,3,0,2,0,0,0,0,0],"split_type":[0,0,0,0,0,0,0,0,0],"sum_hessian":[2.6267867E4,1.9372854E4,6.895014E3,3.8030598E3,1.5569794E4,2.8467712E3,9.562887E2,2.829105E3,1.7666311E1],"tree_param":{"num_deleted":"0","num_feature":"4","num_nodes":"9","size_leaf_vector":"1"}},{"base_weights":[-1.3314384E-1,-1.2255213E0,2.4975693E-1,-1.1115459E0,-1.2535204E-1,-1.0643564E0,-1.2522592E-1,-1.0736902E-1,3.0004486E-2],"categories":[],"categories_nodes":[],"categories_segments":[],"categories_sizes":[],"default_left":[0,0,0,0,0,0,0,0,0],"id":2,"left_children":[1,3,-1,5,-1,7,-1,-1,-1],"loss_changes":[7.3299914E4,5.6123047E1,0E0,2.2327148E1,0E0,3.4388184E1,0E0,0E0,0E0],"parents":[2147483647,0,0,1,1,3,3,5,5],"right_children":[2,4,-1,6,-1,8,-1,-1,-1],"split_conditions":[1E0,9.5961E2,2.4975693E-1,5.0433685E2,-1.2535204E-1,3E0,-1.2522592E-1,-1.0736902E-1,3.0004486E-2],"split_indices":[1,3,0,2,0,0,0,0,0],"split_type":[0,0,0,0,0,0,0,0,0],"sum_hessian":[2.5504812E4,1.8021922E4,7.48289E3,3.5621628E3,1.4459759E4,2.6739824E3,8.881803E2,2.656026E3,1.7956472E1],"tree_param":{"num_deleted":"0","num_feature":"4","num_nodes":"9","size_leaf_vector":"1"}},{"base_weights":[-1.2975791E-1,-1.1938846E0,2.166572E-1,-1.0739621E0,-1.22363724E-1,-1.0248494E0,-1.2223252E-1,-1.03440836E-1,2.678073E-2],"categories":[],"categories_nodes":[],"categories_segments":[],"categories_sizes":[],"default_left":[0,0,0,0,0,0,0,0,0],"id":3,"left_children":[1,3,-1,5,-1,7,-1,-1,-1],"loss_changes":[5.9783543E4,5.8333984E1,0E0,2.3021729E1,0E0,3.1280273E1,0E0,0E0,0E0],"parents":[2147483647,0,0,1,1,3,3,5,5],"right_children":[2,4,-1,6,-1,8,-1,-1,-1],"split_conditions":[1E0,9.5961E2,2.166572E-1,5.0433685E2,-1.22363724E-1,3E0,-1.2223252E-1,-1.03440836E-1,2.678073E-2],"split_indices":[1,3,0,2,0,0,0,0,0],"split_type":[0,0,0,0,0,0,0,0,0],"sum_hessian":[2.4463436E4,1.6717139E4,7.746296E3,3.3304272E3,1.3386712E4,2.5080845E3,8.223428E2,2.4898723E3,1.8212221E1],"tree_param":{"num_deleted":"0","num_feature":"4","num_nodes":"9","size_leaf_vector":"1"}},{"base_weights":[-1.2641126E-1,-1.1660289E0,1.9393067E-1,-1.0391443E0,-1.1978642E-1,-9.878207E-1,-1.1964847E-1,-9.9168636E-2,1.9915327E-1],"categories":[],"categories_nodes":[],"categories_segments":[],"categories_sizes":[],"default_left":[0,0,0,0,0,0,0,0,0],"id":4,"left_children":[1,3,-1,5,-1,7,-1,-1,-1],"loss_changes":[4.994464E4,6.124414E1,0E0,2.3936523E1,0E0,2.905371E1,0E0,0E0,0E0],"parents":[2147483647,0,0,1,1,3,3,5,5],"right_children":[2,4,-1,6,-1,8,-1,-1,-1],"split_conditions":[1E0,9.5961E2,1.9393067E-1,5.0433685E2,-1.1978642E-1,4E0,-1.1964847E-1,-9.9168636E-2,1.9915327E-1],"split_indices":[1,3,0,2,0,0,0,0,0],"split_type":[0,0,0,0,0,0,0,0,0],"sum_hessian":[2.325444E4,1.5469508E4,7.7849316E3,3.109552E3,1.2359956E4,2.350206E3,7.5934595E2,2.3478271E3,2.3791065E0],"tree_param":{"num_deleted":"0","num_feature":"4","num_nodes":"9","size_leaf_vector":"1"}},{"base_weights":[-1.23273775E-1,-1.1412351E0,1.773695E-1,-1.0063465E0,-1.1755099E-1,-9.525406E-1,-1.1740474E-1,-9.629656E-2,3.0235633E-2],"categories":[],"categories_nodes":[],"categories_segments":[],"categories_sizes":[],"default_left":[0,0,0,0,0,0,0,0,0],"id":5,"left_children":[1,3,-1,5,-1,7,-1,-1,-1],"loss_changes":[4.239443E4,6.487109E1,0E0,2.5064941E1,0E0,2.9100708E1,0E0,0E0,0E0],"parents":[2147483647,0,0,1,1,3,3,5,5],"right_children":[2,4,-1,6,-1,8,-1,-1,-1],"split_conditions":[1E0,9.5961E2,1.773695E-1,5.0433685E2,-1.1755099E-1,3E0,-1.1740474E-1,-9.629656E-2,3.0235633E-2],"split_indices":[1,3,0,2,0,0,0,0,0],"split_type":[0,0,0,0,0,0,0,0,0],"sum_hessian":[2.1952137E4,1.4286199E4,7.665937E3,2.9007327E3,1.1385467E4,2.2011765E3,6.99556E2,2.1832717E3,1.7904842E1],"tree_param":{"num_deleted":"0","num_feature":"4","num_nodes":"9","size_leaf_vector":"1"}},{"base_weights":[-1.20411776E-1,-1.1189967E0,1.6479187E-1,-9.7530097E-1,-1.1560265E-1,-9.1885805E-1,-1.1544647E-1,-1.0632187E-1,-8.244763E-2],"categories":[],"categories_nodes":[],"categories_segments":[],"categories_sizes":[],"default_left":[0,0,0,0,0,0,0,0,0],"id":6,"left_children":[1,3,-1,5,-1,7,-1,-1,-1],"loss_changes":[3.6394316E4,6.896094E1,0E0,2.6296387E1,0E0,2.7219238E1,0E0,0E0,0E0],"parents":[2147483647,0,0,1,1,3,3,5,5],"right_children":[2,4,-1,6,-1,8,-1,-1,-1],"split_conditions":[1E0,9.5961E2,1.6479187E-1,5.0433685E2,-1.1560265E-1,4.0371E2,-1.1544647E-1,-1.0632187E-1,-8.244763E-2],"split_indices":[1,3,0,2,0,3,0,0,0],"split_type":[0,0,0,0,0,0,0,0,0],"sum_hessian":[2.0608293E4,1.3170957E4,7.437337E3,2.7042632E3,1.0466693E4,2.0610789E3,6.431844E2,8.107456E2,1.2503331E3],"tree_param":{"num_deleted":"0","num_feature":"4","num_nodes":"9","size_leaf_vector":"1"}},{"base_weights":[-1.17812276E-1,-1.0987946E0,1.5494514E-1,-9.453224E-1,-1.13897264E-1,-8.8606596E-1,-1.1372959E-1,-8.9763716E-2,3.6482062E-2],"categories":[],"categories_nodes":[],"categories_segments":[],"categories_sizes":[],"default_left":[0,0,0,0,0,0,0,0,0],"id":7,"left_children":[1,3,-1,5,-1,7,-1,-1,-1],"loss_changes":[3.1505158E4,7.3703125E1,0E0,2.7681885E1,0E0,2.8286743E1,0E0,0E0,0E0],"parents":[2147483647,0,0,1,1,3,3,5,5],"right_children":[2,4,-1,6,-1,8,-1,-1,-1],"split_conditions":[1E0,9.5961E2,1.5494514E-1,5.0433685E2,-1.13897264E-1,3E0,-1.1372959E-1,-8.9763716E-2,3.6482062E-2],"split_indices":[1,3,0,2,0,0,0,0,0],"split_type":[0,0,0,0,0,0,0,0,0],"sum_hessian":[1.926062E4,1.2126177E4,7.1344424E3,2.5209988E3,9.605178E3,1.9306733E3,5.9032544E2,1.9132574E3,1.7415903E1],"tree_param":{"num_deleted":"0","num_feature":"4","num_nodes":"9","size_leaf_vector":"1"}},{"base_weights":[-1.1544783E-1,-1.0803305E0,1.4705534E-1,-9.163935E-1,-1.1239904E-1,-8.542582E-1,-1.1221816E-1,-1.01516835E-1,-7.510174E-2],"categories":[],"categories_nodes":[],"categories_segments":[],"categories_sizes":[],"default_left":[0,0,0,0,0,0,0,0,0],"id":8,"left_children":[1,3,-1,5,-1,7,-1,-1,-1],"loss_changes":[2.7448107E4,7.8788086E1,0E0,2.9099854E1,0E0,2.9302246E1,0E0,0E0,0E0],"parents":[2147483647,0,0,1,1,3,3,5,5],"right_children":[2,4,-1,6,-1,8,-1,-1,-1],"split_conditions":[1E0,9.5961E2,1.4705534E-1,5.0433685E2,-1.1239904E-1,4.0371E2,-1.1221816E-1,-1.01516835E-1,-7.510174E-2],"split_indices":[1,3,0,2,0,3,0,0,0],"split_type":[0,0,0,0,0,0,0,0,0],"sum_hessian":[1.7934324E4,1.1150788E4,6.783536E3,2.3497551E3,8.801033E3,1.808769E3,5.40986E2,7.034872E2,1.105282E3],"tree_param":{"num_deleted":"0","num_feature":"4","num_nodes":"9","size_leaf_vector":"1"}},{"base_weights":[-1.13296464E-1,-1.063207E0,1.4061712E-1,-8.879275E-1,-1.1107849E-1,-8.228342E-1,-1.1088264E-1,-9.909167E-2,-7.1720816E-2],"categories":[],"categories_nodes":[],"categories_segments":[],"categories_sizes":[],"default_left":[0,0,0,0,0,0,0,0,0],"id":9,"left_children":[1,3,-1,5,-1,7,-1,-1,-1],"loss_changes":[2.4033291E4,8.445703E1,0E0,3.0611328E1,0E0,2.9421753E1,0E0,0E0,0E0],"parents":[2147483647,0,0,1,1,3,3,5,5],"right_children":[2,4,-1,6,-1,8,-1,-1,-1],"split_conditions":[1E0,9.5961E2,1.4061712E-1,5.0433685E2,-1.1107849E-1,4.0371E2,-1.1088264E-1,-9.909167E-2,-7.1720816E-2],"split_indices":[1,3,0,2,0,3,0,0,0],"split_type":[0,0,0,0,0,0,0,0,0],"sum_hessian":[1.6648918E4,1.0244663E4,6.4042544E3,2.1913342E3,8.053329E3,1.696225E3,4.9510913E2,6.513506E2,1.0448744E3],"tree_param":{"num_deleted":"0","num_feature":"4","num_nodes":"9","size_leaf_vector":"1"}},{"base_weights":[-1.1132684E-1,-1.0471977E0,1.3528562E-1,-8.5987574E-1,-1.09911196E-1,-7.9182667E-1,-1.0969853E-1,-9.674408E-2,-6.8390846E-2],"categories":[],"categories_nodes":[],"categories_segments":[],"categories_sizes":[],"default_left":[0,0,0,0,0,0,0,0,0],"id":10,"left_children":[1,3,-1,5,-1,7,-1,-1,-1],"loss_changes":[2.1127578E4,9.052637E1,0E0,3.213916E1,0E0,2.9531189E1,0E0,0E0,0E0],"parents":[2147483647,0,0,1,1,3,3,5,5],"right_children":[2,4,-1,6,-1,8,-1,-1,-1],"split_conditions":[1E0,9.5961E2,1.3528562E-1,5.0433685E2,-1.09911196E-1,4.0371E2,-1.0969853E-1,-9.674408E-2,-6.8390846E-2],"split_indices":[1,3,0,2,0,3,0,0,0],"split_type":[0,0,0,0,0,0,0,0,0],"sum_hessian":[1.5416336E4,9.405104E3,6.011233E3,2.0447178E3,7.3603857E3,1.5921262E3,4.5259152E2,6.029644E2,9.891618E2],"tree_param":{"num_deleted":"0","num_feature":"4","num_nodes":"9","size_leaf_vector":"1"}},{"base_weights":[-1.0951182E-1,-1.0320699E0,1.3081716E-1,-8.320601E-1,-1.0887676E-1,-7.611052E-1,-1.086452E-1,-7.7587605E-2,5.9467405E-2],"categories":[],"categories_nodes":[],"categories_segments":[],"categories_sizes":[],"default_left":[0,0,0,0,0,0,0,0,0],"id":11,"left_children":[1,3,-1,5,-1,7,-1,-1,-1],"loss_changes":[1.8633225E4,9.696387E1,0E0,3.3656372E1,0E0,3.04422E1,0E0,0E0,0E0],"parents":[2147483647,0,0,1,1,3,3,5,5],"right_children":[2,4,-1,6,-1,8,-1,-1,-1],"split_conditions":[1E0,9.5961E2,1.3081716E-1,5.0433685E2,-1.0887676E-1,3E0,-1.086452E-1,-7.7587605E-2,5.9467405E-2],"split_indices":[1,3,0,2,0,0,0,0,0],"split_type":[0,0,0,0,0,0,0,0,0],"sum_hessian":[1.4244693E4,8.629388E3,5.6153057E3,1.909392E3,6.7199956E3,1.496094E3,4.1329803E2,1.4803932E3,1.5700754E1],"tree_param":{"num_deleted":"0","num_feature":"4","num_nodes":"9","size_leaf_vector":"1"}},{"base_weights":[-1.0781928E-1,-1.0176541E0,1.2703441E-1,-8.044442E-1,-1.0795796E-1,-7.3068815E-1,-1.0770535E-1,-9.26234E-2,-6.1365616E-2],"categories":[],"categories_nodes":[],"categories_segments":[],"categories_sizes":[],"default_left":[0,0,0,0,0,0,0,0,0],"id":12,"left_children":[1,3,-1,5,-1,7,-1,-1,-1],"loss_changes":[1.6476762E4,1.0363281E2,0E0,3.511084E1,0E0,3.1660645E1,0E0,0E0,0E0],"parents":[2147483647,0,0,1,1,3,3,5,5],"right_children":[2,4,-1,6,-1,8,-1,-1,-1],"split_conditions":[1E0,9.5961E2,1.2703441E-1,5.0433685E2,-1.0795796E-1,4.0371E2,-1.0770535E-1,-9.26234E-2,-6.1365616E-2],"split_indices":[1,3,0,2,0,3,0,0,0],"split_type":[0,0,0,0,0,0,0,0,0],"sum_hessian":[1.3138368E4,7.913983E3,5.2243853E3,1.7843699E3,6.1296133E3,1.4072976E3,3.770722E2,5.243164E2,8.829812E2],"tree_param":{"num_deleted":"0","num_feature":"4","num_nodes":"9","size_leaf_vector":"1"}},{"base_weights":[-1.0624254E-1,-1.0036986E0,1.2380518E-1,-7.767005E-1,-1.07140206E-1,-7.0028114E-1,-1.06864154E-1,-7.26566E-2,1.9959744E-2],"categories":[],"categories_nodes":[],"categories_segments":[],"categories_sizes":[],"default_left":[0,0,0,0,0,0,0,0,0],"id":13,"left_children":[1,3,-1,5,-1,7,-1,-1,-1],"loss_changes":[1.4601092E4,1.107041E2,0E0,3.6529724E1,0E0,3.1536926E1,0E0,0E0,0E0],"parents":[2147483647,0,0,1,1,3,3,5,5],"right_children":[2,4,-1,6,-1,8,-1,-1,-1],"split_conditions":[1E0,9.5961E2,1.2380518E-1,5.0433685E2,-1.07140206E-1,3.5783847E2,-1.06864154E-1,-7.26566E-2,1.9959744E-2],"split_indices":[1,3,0,2,0,2,0,0,0],"split_type":[0,0,0,0,0,0,0,0,0],"sum_hessian":[1.2100545E4,7.2563984E3,4.844146E3,1.6699205E3,5.5864775E3,1.3261755E3,3.43745E2,1.2887253E3,3.745021E1],"tree_param":{"num_deleted":"0","num_feature":"4","num_nodes":"9","size_leaf_vector":"1"}},{"base_weights":[-1.047453E-1,-9.9006844E-1,1.21028654E-1,-7.488219E-1,-1.0641109E-1,-6.6992116E-1,-1.0610898E-1,-8.860539E-2,-5.444513E-2],"categories":[],"categories_nodes":[],"categories_segments":[],"categories_sizes":[],"default_left":[0,0,0,0,0,0,0,0,0],"id":14,"left_children":[1,3,-1,5,-1,7,-1,-1,-1],"loss_changes":[1.2961585E4,1.180542E2,0E0,3.7870422E1,0E0,3.349048E1,0E0,0E0,0E0],"parents":[2147483647,0,0,1,1,3,3,5,5],"right_children":[2,4,-1,6,-1,8,-1,-1,-1],"split_conditions":[1E0,9.5961E2,1.21028654E-1,5.0433685E2,-1.0641109E-1,4.0371E2,-1.0610898E-1,-8.860539E-2,-5.444513E-2],"split_indices":[1,3,0,2,0,3,0,0,0],"split_type":[0,0,0,0,0,0,0,0,0],"sum_hessian":[1.1131172E4,6.65264E3,4.4785317E3,1.5649146E3,5.0877256E3,1.2517739E3,3.131407E2,4.575472E2,7.942267E2],"tree_param":{"num_deleted":"0","num_feature":"4","num_nodes":"9","size_leaf_vector":"1"}},{"base_weights":[-1.0332794E-1,-9.7664255E-1,1.1862681E-1,-7.2087526E-1,-1.05759874E-1,-6.3975394E-1,-1.0542889E-1,-8.633994E-2,-5.1380504E-2],"categories":[],"categories_nodes":[],"categories_segments":[],"categories_sizes":[],"default_left":[0,0,0,0,0,0,0,0,0],"id":15,"left_children":[1,3,-1,5,-1,7,-1,-1,-1],"loss_changes":[1.1522898E4,1.2554932E2,0E0,3.9078674E1,0E0,3.292688E1,0E0,0E0,0E0],"parents":[2147483647,0,0,1,1,3,3,5,5],"right_children":[2,4,-1,6,-1,8,-1,-1,-1],"split_conditions":[1E0,9.5961E2,1.1862681E-1,5.0433685E2,-1.05759874E-1,4.0371E2,-1.0542889E-1,-8.633994E-2,-5.1380504E-2],"split_indices":[1,3,0,2,0,3,0,0,0],"split_type":[0,0,0,0,0,0,0,0,0],"sum_hessian":[1.0229425E4,6.0992524E3,4.1301724E3,1.4687836E3,4.6304688E3,1.1837015E3,2.850821E2,4.243446E2,7.5935693E2],"tree_param":{"num_deleted":"0","num_feature":"4","num_nodes":"9","size_leaf_vector":"1"}},{"base_weights":[-1.0196559E-1,-9.6328056E-1,1.16538025E-1,-6.927948E-1,-1.051774E-1,-6.097421E-1,-1.0481441E-1,-1.06350474E-1,-5.4476947E-2],"categories":[],"categories_nodes":[],"categories_segments":[],"categories_sizes":[],"default_left":[0,0,0,0,0,0,0,0,0],"id":16,"left_children":[1,3,-1,5,-1,7,-1,-1,-1],"loss_changes":[1.0255878E4,1.3316357E2,0E0,4.014325E1,0E0,3.2513275E1,0E0,0E0,0E0],"parents":[2147483647,0,0,1,1,3,3,5,5],"right_children":[2,4,-1,6,-1,8,-1,-1,-1],"split_conditions":[1E0,9.5961E2,1.16538025E-1,5.0433685E2,-1.051774E-1,1.5093E2,-1.0481441E-1,-1.06350474E-1,-5.4476947E-2],"split_indices":[1,3,0,2,0,3,0,0,0],"split_type":[0,0,0,0,0,0,0,0,0],"sum_hessian":[9.39338E3,5.5927017E3,3.8006782E3,1.3808558E3,4.2118457E3,1.1214622E3,2.5939365E2,1.3854047E2,9.829217E2],"tree_param":{"num_deleted":"0","num_feature":"4","num_nodes":"9","size_leaf_vector":"1"}},{"base_weights":[-1.00643724E-1,-9.4983983E-1,1.14713214E-1,-6.645292E-1,-1.0465566E-1,-5.798724E-1,-1.0425725E-1,-8.20602E-2,-4.507876E-2],"categories":[],"categories_nodes":[],"categories_segments":[],"categories_sizes":[],"default_left":[0,0,0,0,0,0,0,0,0],"id":17,"left_children":[1,3,-1,5,-1,7,-1,-1,-1],"loss_changes":[9.136641E3,1.4088379E2,0E0,4.10542E1,0E0,3.2748444E1,0E0,0E0,0E0],"parents":[2147483647,0,0,1,1,3,3,5,5],"right_children":[2,4,-1,6,-1,8,-1,-1,-1],"split_conditions":[1E0,9.5961E2,1.14713214E-1,5.0433685E2,-1.0465566E-1,4.0371E2,-1.0425725E-1,-8.20602E-2,-4.507876E-2],"split_indices":[1,3,0,2,0,3,0,0,0],"split_type":[0,0,0,0,0,0,0,0,0],"sum_hessian":[8.6206455E3,5.129745E3,3.4909006E3,1.3006753E3,3.82907E3,1.0647708E3,2.3590457E2,3.6979156E2,6.949791E2],"tree_param":{"num_deleted":"0","num_feature":"4","num_nodes":"9","size_leaf_vector":"1"}},{"base_weights":[-9.9349014E-2,-9.3625414E-1,1.1311257E-1,-6.362235E-1,-1.0418772E-1,-5.503286E-1,-1.0375015E-1,-5.8328796E-2,4.5849014E-2],"categories":[],"categories_nodes":[],"categories_segments":[],"categories_sizes":[],"default_left":[0,0,0,0,0,0,0,0,0],"id":18,"left_children":[1,3,-1,5,-1,7,-1,-1,-1],"loss_changes":[8.1456206E3,1.4852979E2,0E0,4.1768646E1,0E0,3.3980682E1,0E0,0E0,0E0],"parents":[2147483647,0,0,1,1,3,3,5,5],"right_children":[2,4,-1,6,-1,8,-1,-1,-1],"split_conditions":[1E0,9.5961E2,1.1311257E-1,5.0433685E2,-1.0418772E-1,3.5783847E2,-1.0375015E-1,-5.8328796E-2,4.5849014E-2],"split_indices":[1,3,0,2,0,2,0,0,0],"split_type":[0,0,0,0,0,0,0,0,0],"sum_hessian":[7.907949E3,4.70684E3,3.2011094E3,1.2273827E3,3.479457E3,1.01293256E3,2.1445013E2,9.8129425E2,3.1638271E1],"tree_param":{"num_deleted":"0","num_feature":"4","num_nodes":"9","size_leaf_vector":"1"}},{"base_weights":[-9.805406E-2,-9.223777E-1,1.11703634E-1,-6.0777634E-1,-1.03767514E-1,-5.210146E-1,-1.03286676E-1,-1.0464951E-1,-4.51153E-2],"categories":[],"categories_nodes":[],"categories_segments":[],"categories_sizes":[],"default_left":[0,0,0,0,0,0,0,0,0],"id":19,"left_children":[1,3,-1,5,-1,7,-1,-1,-1],"loss_changes":[7.265997E3,1.5614014E2,0E0,4.2302124E1,0E0,3.501587E1,0E0,0E0,0E0],"parents":[2147483647,0,0,1,1,3,3,5,5],"right_children":[2,4,-1,6,-1,8,-1,-1,-1],"split_conditions":[1E0,9.5961E2,1.11703634E-1,5.0433685E2,-1.03767514E-1,1.5093E2,-1.03286676E-1,-1.0464951E-1,-4.51153E-2],"split_indices":[1,3,0,2,0,3,0,0,0],"split_type":[0,0,0,0,0,0,0,0,0],"sum_hessian":[7.2521606E3,4.3210073E3,2.9311533E3,1.1605616E3,3.1604458E3,9.656884E2,1.9487321E2,1.116802E2,8.5400824E2],"tree_param":{"num_deleted":"0","num_feature":"4","num_nodes":"9","size_leaf_vector":"1"}},{"base_weights":[-9.678249E-2,-9.081412E-1,1.10459544E-1,-5.793957E-1,-1.0338974E-1,-4.9220446E-1,-1.028611E-1,-1.0400959E-1,-4.2320322E-2],"categories":[],"categories_nodes":[],"categories_segments":[],"categories_sizes":[],"default_left":[0,0,0,0,0,0,0,0,0],"id":20,"left_children":[1,3,-1,5,-1,7,-1,-1,-1],"loss_changes":[6.484099E3,1.6354712E2,0E0,4.261209E1,0E0,3.448584E1,0E0,0E0,0E0],"parents":[2147483647,0,0,1,1,3,3,5,5],"right_children":[2,4,-1,6,-1,8,-1,-1,-1],"split_conditions":[1E0,9.5961E2,1.10459544E-1,5.0433685E2,-1.0338974E-1,1.5093E2,-1.028611E-1,-1.0400959E-1,-4.2320322E-2],"split_indices":[1,3,0,2,0,3,0,0,0],"split_type":[0,0,0,0,0,0,0,0,0],"sum_hessian":[6.6500444E3,3.9694758E3,2.6805684E3,1.099867E3,2.8696091E3,9.228419E2,1.7702498E2,1.0164838E2,8.2119354E2],"tree_param":{"num_deleted":"0","num_feature":"4","num_nodes":"9","size_leaf_vector":"1"}},{"base_weights":[-9.550683E-2,-8.9346206E-1,1.09357946E-1,-5.511221E-1,-1.0304971E-1,-4.6392584E-1,-1.0246831E-1,-4.8790243E-2,1.1291587E-1],"categories":[],"categories_nodes":[],"categories_segments":[],"categories_sizes":[],"default_left":[0,0,0,0,0,0,0,0,0],"id":21,"left_children":[1,3,-1,5,-1,7,-1,-1,-1],"loss_changes":[5.7879004E3,1.7067651E2,0E0,4.2701538E1,0E0,3.4349823E1,0E0,0E0,0E0],"parents":[2147483647,0,0,1,1,3,3,5,5],"right_children":[2,4,-1,6,-1,8,-1,-1,-1],"split_conditions":[1E0,9.5961E2,1.09357946E-1,5.0433685E2,-1.0304971E-1,3E0,-1.0246831E-1,-4.8790243E-2,1.1291587E-1],"split_indices":[1,3,0,2,0,0,0,0,0],"split_type":[0,0,0,0,0,0,0,0,0],"sum_hessian":[6.0979604E3,3.649293E3,2.4486675E3,1.0446292E3,2.6046638E3,8.8386383E2,1.607653E2,8.7144196E2,1.2421827E1],"tree_param":{"num_deleted":"0","num_feature":"4","num_nodes":"9","size_leaf_vector":"1"}},{"base_weights":[-9.418406E-2,-8.7831706E-1,1.083801E-1,-5.2305883E-1,-1.02743305E-1,-4.3623918E-1,-1.021037E-1,-1.0318025E-1,-3.6555823E-2],"categories":[],"categories_nodes":[],"categories_segments":[],"categories_sizes":[],"default_left":[0,0,0,0,0,0,0,0,0],"id":22,"left_children":[1,3,-1,5,-1,7,-1,-1,-1],"loss_changes":[5.167215E3,1.773728E2,0E0,4.2569855E1,0E0,3.5360245E1,0E0,0E0,0E0],"parents":[2147483647,0,0,1,1,3,3,5,5],"right_children":[2,4,-1,6,-1,8,-1,-1,-1],"split_conditions":[1E0,9.5961E2,1.083801E-1,5.0433685E2,-1.02743305E-1,1.5093E2,-1.021037E-1,-1.0318025E-1,-3.6555823E-2],"split_indices":[1,3,0,2,0,3,0,0,0],"split_type":[0,0,0,0,0,0,0,0,0],"sum_hessian":[5.5920283E3,3.357405E3,2.234623E3,9.939343E2,2.363471E3,8.479713E2,1.4596301E2,8.8517494E1,7.594538E2],"tree_param":{"num_deleted":"0","num_feature":"4","num_nodes":"9","size_leaf_vector":"1"}},{"base_weights":[-9.287368E-2,-8.625295E-1,1.07510105E-1,-4.9526438E-1,-1.0246688E-1,-4.0928775E-1,-1.0176307E-1,-1.02646165E-1,-3.4042638E-2],"categories":[],"categories_nodes":[],"categories_segments":[],"categories_sizes":[],"default_left":[0,0,0,0,0,0,0,0,0],"id":23,"left_children":[1,3,-1,5,-1,7,-1,-1,-1],"loss_changes":[4.613266E3,1.8369653E2,0E0,4.221927E1,0E0,3.4365677E1,0E0,0E0,0E0],"parents":[2147483647,0,0,1,1,3,3,5,5],"right_children":[2,4,-1,6,-1,8,-1,-1,-1],"split_conditions":[1E0,9.5961E2,1.07510105E-1,5.0433685E2,-1.0246688E-1,1.5093E2,-1.0176307E-1,-1.02646165E-1,-3.4042638E-2],"split_indices":[1,3,0,2,0,3,0,0,0],"split_type":[0,0,0,0,0,0,0,0,0],"sum_hessian":[5.1298716E3,3.0923674E3,2.0375042E3,9.4833295E2,2.1440347E3,8.158373E2,1.3249567E2,8.049452E1,7.353428E2],"tree_param":{"num_deleted":"0","num_feature":"4","num_nodes":"9","size_leaf_vector":"1"}},{"base_weights":[-9.153338E-2,-8.460956E-1,1.0673447E-1,-4.6786273E-1,-1.022172E-1,-3.831332E-1,-1.0144263E-1,-6.84872E-2,-2.3968253E-2],"categories":[],"categories_nodes":[],"categories_segments":[],"categories_sizes":[],"default_left":[0,0,0,0,0,0,0,0,0],"id":24,"left_children":[1,3,-1,5,-1,7,-1,-1,-1],"loss_changes":[4.118446E3,1.8948657E2,0E0,4.165692E1,0E0,3.392964E1,0E0,0E0,0E0],"parents":[2147483647,0,0,1,1,3,3,5,5],"right_children":[2,4,-1,6,-1,8,-1,-1,-1],"split_conditions":[1E0,9.5961E2,1.0673447E-1,5.0433685E2,-1.022172E-1,4.0371E2,-1.0144263E-1,-6.84872E-2,-2.3968253E-2],"split_indices":[1,3,0,2,0,3,0,0,0],"split_type":[0,0,0,0,0,0,0,0,0],"sum_hessian":[4.707746E3,2.8514172E3,1.856329E3,9.069147E2,1.9445027E3,7.8666504E2,1.20249626E2,2.5226613E2,5.343989E2],"tree_param":{"num_deleted":"0","num_feature":"4","num_nodes":"9","size_leaf_vector":"1"}},{"base_weights":[-9.0149224E-2,-8.2898E-1,1.0604163E-1,-4.409591E-1,-1.0199138E-1,-3.5784814E-1,-1.0113882E-1,-3.9861247E-2,7.1825646E-2],"categories":[],"categories_nodes":[],"categories_segments":[],"categories_sizes":[],"default_left":[0,0,0,0,0,0,0,0,0],"id":25,"left_children":[1,3,-1,5,-1,7,-1,-1,-1],"loss_changes":[3.6761545E3,1.9464795E2,0E0,4.0894592E1,0E0,3.3673553E1,0E0,0E0,0E0],"parents":[2147483647,0,0,1,1,3,3,5,5],"right_children":[2,4,-1,6,-1,8,-1,-1,-1],"split_conditions":[1E0,9.5961E2,1.0604163E-1,5.0433685E2,-1.0199138E-1,3.5783847E2,-1.0113882E-1,-3.9861247E-2,7.1825646E-2],"split_indices":[1,3,0,2,0,2,0,0,0],"split_type":[0,0,0,0,0,0,0,0,0],"sum_hessian":[4.322481E3,2.6323853E3,1.6900956E3,8.692269E2,1.7631583E3,7.6010736E2,1.0911957E2,7.32971E2,2.7136364E1],"tree_param":{"num_deleted":"0","num_feature":"4","num_nodes":"9","size_leaf_vector":"1"}},{"base_weights":[-8.8689685E-2,-8.111051E-1,1.05421655E-1,-4.145328E-1,-1.0178685E-1,-3.3336616E-1,-1.0084839E-1,-1.01664126E-1,-2.643073E-2],"categories":[],"categories_nodes":[],"categories_segments":[],"categories_sizes":[],"default_left":[0,0,0,0,0,0,0,0,0],"id":26,"left_children":[1,3,-1,5,-1,7,-1,-1,-1],"loss_changes":[3.2804822E3,1.9918726E2,0E0,3.996379E1,0E0,3.4504448E1,0E0,0E0,0E0],"parents":[2147483647,0,0,1,1,3,3,5,5],"right_children":[2,4,-1,6,-1,8,-1,-1,-1],"split_conditions":[1E0,9.5961E2,1.05421655E-1,5.0433685E2,-1.0178685E-1,1.5093E2,-1.0084839E-1,-1.01664126E-1,-2.643073E-2],"split_indices":[1,3,0,2,0,3,0,0,0],"split_type":[0,0,0,0,0,0,0,0,0],"sum_hessian":[3.9711616E3,2.433359E3,1.5378027E3,8.349428E2,1.598416E3,7.3593463E2,9.900821E1,6.629399E1,6.696406E2],"tree_param":{"num_deleted":"0","num_feature":"4","num_nodes":"9","size_leaf_vector":"1"}},{"base_weights":[-8.722234E-2,-7.9247266E-1,1.04865886E-1,-3.8891214E-1,-1.016013E-1,-3.100445E-1,-1.0056829E-1,-1.0120972E-1,-2.4392368E-2],"categories":[],"categories_nodes":[],"categories_segments":[],"categories_sizes":[],"default_left":[0,0,0,0,0,0,0,0,0],"id":27,"left_children":[1,3,-1,5,-1,7,-1,-1,-1],"loss_changes":[2.926637E3,2.029303E2,0E0,3.8848236E1,0E0,3.295385E1,0E0,0E0,0E0],"parents":[2147483647,0,0,1,1,3,3,5,5],"right_children":[2,4,-1,6,-1,8,-1,-1,-1],"split_conditions":[1E0,9.5961E2,1.04865886E-1,5.0433685E2,-1.016013E-1,1.5093E2,-1.0056829E-1,-1.0120972E-1,-2.4392368E-2],"split_indices":[1,3,0,2,0,3,0,0,0],"split_type":[0,0,0,0,0,0,0,0,0],"sum_hessian":[3.651324E3,2.252861E3,1.3984629E3,8.040459E2,1.4488153E3,7.142199E2,8.982596E1,6.0245285E1,6.539747E2],"tree_param":{"num_deleted":"0","num_feature":"4","num_nodes":"9","size_leaf_vector":"1"}},{"base_weights":[-8.5698456E-2,-7.730583E-1,1.0436689E-1,-3.6406413E-1,-1.014327E-1,-2.8776935E-1,-1.00295626E-1,-1.0077162E-1,-2.2469454E-2],"categories":[],"categories_nodes":[],"categories_segments":[],"categories_sizes":[],"default_left":[0,0,0,0,0,0,0,0,0],"id":28,"left_children":[1,3,-1,5,-1,7,-1,-1,-1],"loss_changes":[2.610027E3,2.0587146E2,0E0,3.758732E1,0E0,3.135865E1,0E0,0E0,0E0],"parents":[2147483647,0,0,1,1,3,3,5,5],"right_children":[2,4,-1,6,-1,8,-1,-1,-1],"split_conditions":[1E0,9.5961E2,1.0436689E-1,5.0433685E2,-1.014327E-1,1.5093E2,-1.00295626E-1,-1.0077162E-1,-2.2469454E-2],"split_indices":[1,3,0,2,0,3,0,0,0],"split_type":[0,0,0,0,0,0,0,0,0],"sum_hessian":[3.3601775E3,2.0890483E3,1.2711292E3,7.760359E2,1.3130125E3,6.9454553E2,8.1490326E1,5.474139E1,6.3980414E2],"tree_param":{"num_deleted":"0","num_feature":"4","num_nodes":"9","size_leaf_vector":"1"}},{"base_weights":[-8.41148E-2,-7.5285697E-1,1.0391809E-1,-3.400651E-1,-1.0127918E-1,-2.665741E-1,-1.0002764E-1,-3.3949483E-2,3.7678625E-2],"categories":[],"categories_nodes":[],"categories_segments":[],"categories_sizes":[],"default_left":[0,0,0,0,0,0,0,0,0],"id":29,"left_children":[1,3,-1,5,-1,7,-1,-1,-1],"loss_changes":[2.3267153E3,2.0796863E2,0E0,3.6203247E1,0E0,3.192302E1,0E0,0E0,0E0],"parents":[2147483647,0,0,1,1,3,3,5,5],"right_children":[2,4,-1,6,-1,8,-1,-1,-1],"split_conditions":[1E0,9.5961E2,1.0391809E-1,5.0433685E2,-1.0127918E-1,6.278401E1,-1.0002764E-1,-3.3949483E-2,3.7678625E-2],"split_indices":[1,3,0,2,0,2,0,0,0],"split_type":[0,0,0,0,0,0,0,0,0],"sum_hessian":[3.0953093E3,1.9404266E3,1.1548827E3,7.506532E2,1.1897736E3,6.767275E2,7.392569E1,6.0825775E2,6.846973E1],"tree_param":{"num_deleted":"0","num_feature":"4","num_nodes":"9","size_leaf_vector":"1"}},{"base_weights":[-8.242977E-2,-7.3187804E-1,1.0351377E-1,-3.1689E-1,-1.0113908E-1,-2.4636297E-1,-9.976171E-2,-1.0023264E-1,-1.8509632E-2],"categories":[],"categories_nodes":[],"categories_segments":[],"categories_sizes":[],"default_left":[0,0,0,0,0,0,0,0,0],"id":30,"left_children":[1,3,-1,5,-1,7,-1,-1,-1],"loss_changes":[2.073158E3,2.0921942E2,0E0,3.4729088E1,0E0,3.0449009E1,0E0,0E0,0E0],"parents":[2147483647,0,0,1,1,3,3,5,5],"right_children":[2,4,-1,6,-1,8,-1,-1,-1],"split_conditions":[1E0,9.5961E2,1.0351377E-1,5.0433685E2,-1.0113908E-1,1.5093E2,-9.976171E-2,-1.0023264E-1,-1.8509632E-2],"split_indices":[1,3,0,2,0,3,0,0,0],"split_type":[0,0,0,0,0,0,0,0,0],"sum_hessian":[2.8543235E3,1.8054648E3,1.0488586E3,7.2749646E2,1.0779684E3,6.6043384E2,6.706265E1,4.8360325E1,6.120735E2],"tree_param":{"num_deleted":"0","num_feature":"4","num_nodes":"9","size_leaf_vector":"1"}},{"base_weights":[-8.071874E-2,-7.1014565E-1,1.03148915E-1,-2.947912E-1,-1.01010874E-1,-2.2740164E-1,-9.949526E-2,-5.5603147E-2,-9.023025E-3],"categories":[],"categories_nodes":[],"categories_segments":[],"categories_sizes":[],"default_left":[0,0,0,0,0,0,0,0,0],"id":31,"left_children":[1,3,-1,5,-1,7,-1,-1,-1],"loss_changes":[1.8464159E3,2.095451E2,0E0,3.3165157E1,0E0,2.9109097E1,0E0,0E0,0E0],"parents":[2147483647,0,0,1,1,3,3,5,5],"right_children":[2,4,-1,6,-1,8,-1,-1,-1],"split_conditions":[1E0,9.5961E2,1.03148915E-1,5.0433685E2,-1.01010874E-1,4.0371E2,-9.949526E-2,-5.5603147E-2,-9.023025E-3],"split_indices":[1,3,0,2,0,3,0,0,0],"split_type":[0,0,0,0,0,0,0,0,0],"sum_hessian":[2.635489E3,1.683254E3,9.5223505E2,7.066914E2,9.7656256E2,6.458537E2,6.083773E1,1.892949E2,4.5655878E2],"tree_param":{"num_deleted":"0","num_feature":"4","num_nodes":"9","size_leaf_vector":"1"}},{"base_weights":[-7.892004E-2,-6.877022E-1,1.02819026E-1,-2.7366915E-1,-1.0089319E-1,-2.0950414E-1,-9.92258E-2,-9.958292E-2,-1.524902E-2],"categories":[],"categories_nodes":[],"categories_segments":[],"categories_sizes":[],"default_left":[0,0,0,0,0,0,0,0,0],"id":32,"left_children":[1,3,-1,5,-1,7,-1,-1,-1],"loss_changes":[1.643637E3,2.0898242E2,0E0,3.1549915E1,0E0,2.8252178E1,0E0,0E0,0E0],"parents":[2147483647,0,0,1,1,3,3,5,5],"right_children":[2,4,-1,6,-1,8,-1,-1,-1],"split_conditions":[1E0,9.5961E2,1.02819026E-1,5.0433685E2,-1.0089319E-1,1.5093E2,-9.92258E-2,-9.958292E-2,-1.524902E-2],"split_indices":[1,3,0,2,0,3,0,0,0],"split_type":[0,0,0,0,0,0,0,0,0],"sum_hessian":[2.4366213E3,1.572376E3,8.6424536E2,6.8776605E2,8.8460986E2,6.3257324E2,5.5192863E1,4.1651913E1,5.909213E2],"tree_param":{"num_deleted":"0","num_feature":"4","num_nodes":"9","size_leaf_vector":"1"}},{"base_weights":[-7.707053E-2,-6.6458476E-1,1.0252019E-1,-2.5363278E-1,-1.0078479E-1,-1.927648E-1,-9.8950855E-2,-2.229235E-2,1.2730952E-1],"categories":[],"categories_nodes":[],"categories_segments":[],"categories_sizes":[],"default_left":[0,0,0,0,0,0,0,0,0],"id":33,"left_children":[1,3,-1,5,-1,7,-1,-1,-1],"loss_changes":[1.4624052E3,2.0752844E2,0E0,2.9896626E1,0E0,2.7765905E1,0E0,0E0,0E0],"parents":[2147483647,0,0,1,1,3,3,5,5],"right_children":[2,4,-1,6,-1,8,-1,-1,-1],"split_conditions":[1E0,9.5961E2,1.0252019E-1,5.0433685E2,-1.0078479E-1,3E0,-9.8950855E-2,-2.229235E-2,1.2730952E-1],"split_indices":[1,3,0,2,0,0,0,0,0],"split_type":[0,0,0,0,0,0,0,0,0],"sum_hessian":[2.2561375E3,1.4719703E3,7.841672E2,6.7072394E2,8.0124646E2,6.2064886E2,5.0075043E1,6.089679E2,1.1681012E1],"tree_param":{"num_deleted":"0","num_feature":"4","num_nodes":"9","size_leaf_vector":"1"}},{"base_weights":[-7.5050704E-2,-6.4091426E-1,1.02248885E-1,-2.3446321E-1,-1.0068454E-1,-1.7685266E-1,-9.8667994E-2,-9.909443E-2,-1.2246362E-2],"categories":[],"categories_nodes":[],"categories_segments":[],"categories_sizes":[],"default_left":[0,0,0,0,0,0,0,0,0],"id":34,"left_children":[1,3,-1,5,-1,7,-1,-1,-1],"loss_changes":[1.3004268E3,2.0523871E2,0E0,2.8245697E1,0E0,2.6904854E1,0E0,0E0,0E0],"parents":[2147483647,0,0,1,1,3,3,5,5],"right_children":[2,4,-1,6,-1,8,-1,-1,-1],"split_conditions":[1E0,9.5961E2,1.02248885E-1,5.0433685E2,-1.0068454E-1,1.5093E2,-9.8667994E-2,-9.909443E-2,-1.2246362E-2],"split_indices":[1,3,0,2,0,3,0,0,0],"split_type":[0,0,0,0,0,0,0,0,0],"sum_hessian":[2.0918354E3,1.3805004E3,7.1133496E2,6.548162E2,7.256842E2,6.093803E2,4.543593E1,3.7084366E1,5.7229596E2],"tree_param":{"num_deleted":"0","num_feature":"4","num_nodes":"9","size_leaf_vector":"1"}},{"base_weights":[-7.306666E-2,-6.166716E-1,1.0200196E-1,-2.1657634E-1,-1.0059136E-1,-1.6227718E-1,-9.837478E-2,-2.4139175E-2,3.898162E-2],"categories":[],"categories_nodes":[],"categories_segments":[],"categories_sizes":[],"default_left":[0,0,0,0,0,0,0,0,0],"id":35,"left_children":[1,3,-1,5,-1,7,-1,-1,-1],"loss_changes":[1.155897E3,2.020953E2,0E0,2.657946E1,0E0,2.633008E1,0E0,0E0,0E0],"parents":[2147483647,0,0,1,1,3,3,5,5],"right_children":[2,4,-1,6,-1,8,-1,-1,-1],"split_conditions":[1E0,9.5961E2,1.0200196E-1,5.0433685E2,-1.0059136E-1,2E0,-9.837478E-2,-2.4139175E-2,3.898162E-2],"split_indices":[1,3,0,2,0,0,0,0,0],"split_type":[0,0,0,0,0,0,0,0,0],"sum_hessian":[1.9432178E3,1.2980952E3,6.4512256E2,6.408908E2,6.572044E2,5.9965936E2,4.1231403E1,5.249913E2,7.46681E1],"tree_param":{"num_deleted":"0","num_feature":"4","num_nodes":"9","size_leaf_vector":"1"}},{"base_weights":[-7.095416E-2,-5.919931E-1,1.01776615E-1,-1.9962326E-1,-1.0050432E-1,-9.890143E-2,-1.4602925E-1,-9.720195E-3,-9.760854E-2],"categories":[],"categories_nodes":[],"categories_segments":[],"categories_sizes":[],"default_left":[0,0,0,0,0,0,0,0,0],"id":36,"left_children":[1,3,-1,5,-1,-1,7,-1,-1],"loss_changes":[1.0268964E3,1.9820923E2,0E0,2.6469933E1,0E0,0E0,2.3828047E1,0E0,0E0],"parents":[2147483647,0,0,1,1,3,3,6,6],"right_children":[2,4,-1,6,-1,-1,8,-1,-1],"split_conditions":[1E0,9.5961E2,1.01776615E-1,1.5093E2,-1.0050432E-1,-9.890143E-2,5.0433685E2,-9.720195E-3,-9.760854E-2],"split_indices":[1,3,0,3,0,0,2,0,0],"split_type":[0,0,0,0,0,0,0,0,0],"sum_hessian":[1.8081946E3,1.2232356E3,5.84959E2,6.280826E2,5.95153E2,3.8821606E1,5.892609E2,5.57579E2,3.1681976E1],"tree_param":{"num_deleted":"0","num_feature":"4","num_nodes":"9","size_leaf_vector":"1"}},{"base_weights":[-6.884183E-2,-5.669811E-1,1.0157031E-1,-1.8386713E-1,-1.0042248E-1,-5.062089E-1,-5.6989122E-2,-2.9658962E-2,-8.607786E-2,1.0510074E-1,-2.5286326E-2],"categories":[],"categories_nodes":[],"categories_segments":[],"categories_sizes":[],"default_left":[0,0,0,0,0,0,0,0,0,0,0],"id":37,"left_children":[1,3,-1,5,-1,7,9,-1,-1,-1,-1],"loss_changes":[9.119575E2,1.9356818E2,0E0,2.5233927E1,0E0,1.2702248E1,9.670507E1,0E0,0E0,0E0,0E0],"parents":[2147483647,0,0,1,1,3,3,5,5,6,6],"right_children":[2,4,-1,6,-1,8,10,-1,-1,-1,-1],"split_conditions":[1E0,9.5961E2,1.0157031E-1,4.0371E2,-1.0042248E-1,2.8533E2,4.8311E2,-2.9658962E-2,-8.607786E-2,1.0510074E-1,-2.5286326E-2],"split_indices":[1,3,0,3,0,3,3,0,0,0,0],"split_type":[0,0,0,0,0,0,0,0,0,0,0],"sum_hessian":[1.6859492E3,1.155635E3,5.303142E2,6.167008E2,5.3893414E2,1.7333707E2,4.433637E2,1.10089424E2,6.3247646E1,6.594853E1,3.774152E2],"tree_param":{"num_deleted":"0","num_feature":"4","num_nodes":"11","size_leaf_vector":"1"}},{"base_weights":[-6.679874E-2,-5.4183525E-1,1.0138078E-1,-1.6944344E-1,-1.0034503E-1,-9.840264E-2,-1.1906006E-1,-7.328129E-3,-9.715971E-2],"categories":[],"categories_nodes":[],"categories_segments":[],"categories_sizes":[],"default_left":[0,0,0,0,0,0,0,0,0],"id":38,"left_children":[1,3,-1,5,-1,-1,7,-1,-1],"loss_changes":[8.097246E2,1.881706E2,0E0,2.4820616E1,0E0,0E0,2.230628E1,0E0,0E0],"parents":[2147483647,0,0,1,1,3,3,6,6],"right_children":[2,4,-1,6,-1,-1,8,-1,-1],"split_conditions":[1E0,9.5961E2,1.0138078E-1,1.5093E2,-1.0034503E-1,-9.840264E-2,5.0433685E2,-7.328129E-3,-9.715971E-2],"split_indices":[1,3,0,3,0,0,2,0,0],"split_type":[0,0,0,0,0,0,0,0,0],"sum_hessian":[1.5753331E3,1.0946302E3,4.8070282E2,6.0662427E2,4.8800598E2,3.4255833E1,5.7236847E2,5.442308E2,2.813766E1],"tree_param":{"num_deleted":"0","num_feature":"4","num_nodes":"9","size_leaf_vector":"1"}},{"base_weights":[-6.4573586E-2,-5.164943E-1,1.0120594E-1,-1.5571466E-1,-1.0027116E-1,-9.8006904E-2,-1.08757064E-1,-6.643241E-3,-9.677018E-2],"categories":[],"categories_nodes":[],"categories_segments":[],"categories_sizes":[],"default_left":[0,0,0,0,0,0,0,0,0],"id":39,"left_children":[1,3,-1,5,-1,-1,7,-1,-1],"loss_changes":[7.185951E2,1.8230664E2,0E0,2.3052977E1,0E0,0E0,2.0554909E1,0E0,0E0],"parents":[2147483647,0,0,1,1,3,3,6,6],"right_children":[2,4,-1,6,-1,-1,8,-1,-1],"split_conditions":[1E0,9.5961E2,1.0120594E-1,1.5093E2,-1.0027116E-1,-9.8006904E-2,5.0433685E2,-6.643241E-3,-9.677018E-2],"split_indices":[1,3,0,3,0,0,2,0,0],"split_type":[0,0,0,0,0,0,0,0,0],"sum_hessian":[1.4748368E3,1.0391641E3,4.3567276E2,5.9728845E2,4.418756E2,3.1118725E1,5.6616974E2,5.406085E2,2.556124E1],"tree_param":{"num_deleted":"0","num_feature":"4","num_nodes":"9","size_leaf_vector":"1"}},{"base_weights":[-6.2295303E-2,-4.9115372E-1,1.0104387E-1,-1.4294377E-1,-1.0020011E-1,-9.759707E-2,-9.926493E-2,-1.128936E-2,2.3466475E-1],"categories":[],"categories_nodes":[],"categories_segments":[],"categories_sizes":[],"default_left":[0,0,0,0,0,0,0,0,0],"id":40,"left_children":[1,3,-1,5,-1,-1,7,-1,-1],"loss_changes":[6.375551E2,1.759494E2,0E0,2.1364994E1,0E0,0E0,1.898462E1,0E0,0E0],"parents":[2147483647,0,0,1,1,3,3,6,6],"right_children":[2,4,-1,6,-1,-1,8,-1,-1],"split_conditions":[1E0,9.5961E2,1.0104387E-1,1.5093E2,-1.0020011E-1,-9.759707E-2,4E0,-1.128936E-2,2.3466475E-1],"split_indices":[1,3,0,3,0,0,0,0,0],"split_type":[0,0,0,0,0,0,0,0,0],"sum_hessian":[1.3837571E3,9.8894E2,3.9481702E2,5.8884454E2,4.000955E2,2.8273743E1,5.605708E2,5.5841315E2,2.157644E0],"tree_param":{"num_deleted":"0","num_feature":"4","num_nodes":"9","size_leaf_vector":"1"}},{"base_weights":[-5.971119E-2,-4.657135E-1,1.00892864E-1,-1.3054252E-1,-1.0013119E-1,-8.82215E-2,-9.688822E-2,-1.33233955E-2,8.085912E-2],"categories":[],"categories_nodes":[],"categories_segments":[],"categories_sizes":[],"default_left":[0,0,0,0,0,0,0,0,0],"id":41,"left_children":[1,3,-1,5,-1,7,-1,-1,-1],"loss_changes":[5.6531866E2,1.6935672E2,0E0,2.0558971E1,0E0,2.25122E1,0E0,0E0,0E0],"parents":[2147483647,0,0,1,1,3,3,5,5],"right_children":[2,4,-1,6,-1,8,-1,-1,-1],"split_conditions":[1E0,9.5961E2,1.00892864E-1,5.0433685E2,-1.0013119E-1,3.5783847E2,-9.688822E-2,-1.33233955E-2,8.085912E-2],"split_indices":[1,3,0,2,0,2,0,0,0],"split_type":[0,0,0,0,0,0,0,0,0],"sum_hessian":[1.3008842E3,9.431302E2,3.5775394E2,5.808716E2,3.6225867E2,5.5400934E2,2.6862234E1,5.283424E2,2.5666912E1],"tree_param":{"num_deleted":"0","num_feature":"4","num_nodes":"9","size_leaf_vector":"1"}},{"base_weights":[-5.7259813E-2,-4.4071195E-1,1.00751296E-1,-1.19410634E-1,-1.0006368E-1,-9.708629E-2,-7.871479E-2,1.2764777E-2,-2.3778602E-2],"categories":[],"categories_nodes":[],"categories_segments":[],"categories_sizes":[],"default_left":[0,0,0,0,0,0,0,0,0],"id":42,"left_children":[1,3,-1,5,-1,-1,7,-1,-1],"loss_changes":[5.0135043E2,1.6228072E2,0E0,1.9837463E1,0E0,0E0,1.8071009E1,0E0,0E0],"parents":[2147483647,0,0,1,1,3,3,6,6],"right_children":[2,4,-1,6,-1,-1,8,-1,-1],"split_conditions":[1E0,9.5961E2,1.00751296E-1,1.5093E2,-1.0006368E-1,-9.708629E-2,5.4086E2,1.2764777E-2,-2.3778602E-2],"split_indices":[1,3,0,3,0,0,3,0,0],"split_type":[0,0,0,0,0,0,0,0,0],"sum_hessian":[1.2258417E3,9.0170166E2,3.2413995E2,5.7370575E2,3.279959E2,2.5127302E1,5.485785E2,2.3887904E2,3.096994E2],"tree_param":{"num_deleted":"0","num_feature":"4","num_nodes":"9","size_leaf_vector":"1"}},{"base_weights":[-5.4829117E-2,-4.159732E-1,1.006177E-1,-1.0918794E-1,-9.9996924E-2,-4.203097E-1,2.3464346E-3,-1.6225731E-2,-8.367359E-2,9.116764E-2,-1.8380817E-2],"categories":[],"categories_nodes":[],"categories_segments":[],"categories_sizes":[],"default_left":[0,0,0,0,0,0,0,0,0,0,0],"id":43,"left_children":[1,3,-1,5,-1,7,9,-1,-1,-1,-1],"loss_changes":[4.4460077E2,1.5496333E2,0E0,1.9730963E1,0E0,1.5988169E1,7.1183655E1,0E0,0E0,0E0,0E0],"parents":[2147483647,0,0,1,1,3,3,5,5,6,6],"right_children":[2,4,-1,6,-1,8,10,-1,-1,-1,-1],"split_conditions":[1E0,9.5961E2,1.006177E-1,4.0371E2,-9.9996924E-2,2.8533E2,4.8311E2,-1.6225731E-2,-8.367359E-2,9.116764E-2,-1.8380817E-2],"split_indices":[1,3,0,3,0,3,3,0,0,0,0],"split_type":[0,0,0,0,0,0,0,0,0,0,0],"sum_hessian":[1.1582119E3,8.6454645E2,2.936654E2,5.6757465E2,2.9697177E2,1.4904625E2,4.1852844E2,9.2879814E1,5.6166435E1,7.045783E1,3.480706E2],"tree_param":{"num_deleted":"0","num_feature":"4","num_nodes":"11","size_leaf_vector":"1"}},{"base_weights":[-5.2603908E-2,-3.9201728E-1,1.0049068E-1,-1.00201905E-1,-9.993024E-2,-3.6842066E-1,2.722125E-2,-9.655382E-2,-2.778698E-2,1.6921166E-1,-1.6843034E-2],"categories":[],"categories_nodes":[],"categories_segments":[],"categories_sizes":[],"default_left":[0,0,0,0,0,0,0,0,0,0,0],"id":44,"left_children":[1,3,-1,5,-1,7,9,-1,-1,-1,-1],"loss_changes":[3.9446954E2,1.4731915E2,0E0,1.9251293E1,0E0,9.53923E0,1.24911835E2,0E0,0E0,0E0,0E0],"parents":[2147483647,0,0,1,1,3,3,5,5,6,6],"right_children":[2,4,-1,6,-1,8,10,-1,-1,-1,-1],"split_conditions":[1E0,9.5961E2,1.0049068E-1,4.4425E2,-9.993024E-2,1.5093E2,4.8311E2,-9.655382E-2,-2.778698E-2,1.6921166E-1,-1.6843034E-2],"split_indices":[1,3,0,3,0,3,3,0,0,0,0],"split_type":[0,0,0,0,0,0,0,0,0,0,0],"sum_hessian":[1.0969077E3,8.308663E2,2.660414E2,5.6198413E2,2.6888214E2,1.8038734E2,3.815968E2,2.2480663E1,1.5790668E2,3.932368E1,3.422731E2],"tree_param":{"num_deleted":"0","num_feature":"4","num_nodes":"11","size_leaf_vector":"1"}},{"base_weights":[-5.0541643E-2,-3.6881483E-1,1.0036891E-1,-9.223172E-2,-9.9862985E-2,-5.2776013E-2,-9.627394E-2,-6.6848225E-3,2.4561644E-1],"categories":[],"categories_nodes":[],"categories_segments":[],"categories_sizes":[],"default_left":[0,0,0,0,0,0,0,0,0],"id":45,"left_children":[1,3,-1,5,-1,7,-1,-1,-1],"loss_changes":[3.5014053E2,1.39514E2,0E0,1.911383E1,0E0,1.9047564E1,0E0,0E0,0E0],"parents":[2147483647,0,0,1,1,3,3,5,5],"right_children":[2,4,-1,6,-1,8,-1,-1,-1],"split_conditions":[1E0,9.5961E2,1.0036891E-1,5.0433685E2,-9.9862985E-2,4E0,-9.627394E-2,-6.6848225E-3,2.4561644E-1],"split_indices":[1,3,0,2,0,0,0,0,0],"split_type":[0,0,0,0,0,0,0,0,0],"sum_hessian":[1.0414309E3,8.0043036E2,2.4100047E2,5.5697943E2,2.4345093E2,5.338436E2,2.3135805E1,5.3183405E2,2.0096095E0],"tree_param":{"num_deleted":"0","num_feature":"4","num_nodes":"9","size_leaf_vector":"1"}},{"base_weights":[-4.783107E-2,-3.456461E-1,1.0025116E-1,-8.3779834E-2,-9.979449E-2,-4.7397405E-2,-9.583785E-2,-1.2102737E-2,4.093839E-2],"categories":[],"categories_nodes":[],"categories_segments":[],"categories_sizes":[],"default_left":[0,0,0,0,0,0,0,0,0],"id":46,"left_children":[1,3,-1,5,-1,7,-1,-1,-1],"loss_changes":[3.105356E2,1.3201039E2,0E0,1.7547483E1,0E0,1.793745E1,0E0,0E0,0E0],"parents":[2147483647,0,0,1,1,3,3,5,5],"right_children":[2,4,-1,6,-1,8,-1,-1,-1],"split_conditions":[1E0,9.5961E2,1.0025116E-1,5.0433685E2,-9.979449E-2,2E0,-9.583785E-2,-1.2102737E-2,4.093839E-2],"split_indices":[1,3,0,2,0,0,0,0,0],"split_type":[0,0,0,0,0,0,0,0,0],"sum_hessian":[9.90628E2,7.7231586E2,2.1831215E2,5.5188806E2,2.2042781E2,5.30859E2,2.1029013E1,4.5779993E2,7.305912E1],"tree_param":{"num_deleted":"0","num_feature":"4","num_nodes":"9","size_leaf_vector":"1"}},{"base_weights":[-4.5402773E-2,-3.234704E-1,1.0013624E-1,-7.6456435E-2,-9.972409E-2,-9.591932E-2,-4.1698556E-2,-1.009197E-3,-9.473766E-2],"categories":[],"categories_nodes":[],"categories_segments":[],"categories_sizes":[],"default_left":[0,0,0,0,0,0,0,0,0],"id":47,"left_children":[1,3,-1,5,-1,-1,7,-1,-1],"loss_changes":[2.7561295E2,1.24418175E2,0E0,1.6787264E1,0E0,0E0,1.5124922E1,0E0,0E0],"parents":[2147483647,0,0,1,1,3,3,6,6],"right_children":[2,4,-1,6,-1,-1,8,-1,-1],"split_conditions":[1E0,9.5961E2,1.0013624E-1,1.5093E2,-9.972409E-2,-9.591932E-2,5.0433685E2,-1.009197E-3,-9.473766E-2],"split_indices":[1,3,0,3,0,0,2,0,0],"split_type":[0,0,0,0,0,0,0,0,0],"sum_hessian":[9.4477795E2,7.470255E2,1.9775241E2,5.474397E2,1.9958583E2,1.9731352E1,5.277084E2,5.1089032E2,1.6818039E1],"tree_param":{"num_deleted":"0","num_feature":"4","num_nodes":"9","size_leaf_vector":"1"}},{"base_weights":[-4.312236E-2,-3.0214357E-1,1.0002299E-1,-6.993047E-2,-9.965109E-2,-9.539577E-2,-3.7989873E-2,-9.0935355E-4,-9.4184645E-2],"categories":[],"categories_nodes":[],"categories_segments":[],"categories_sizes":[],"default_left":[0,0,0,0,0,0,0,0,0],"id":48,"left_children":[1,3,-1,5,-1,-1,7,-1,-1],"loss_changes":[2.4475113E2,1.168946E2,0E0,1.5343557E1,0E0,0E0,1.3748607E1,0E0,0E0],"parents":[2147483647,0,0,1,1,3,3,6,6],"right_children":[2,4,-1,6,-1,-1,8,-1,-1],"split_conditions":[1E0,9.5961E2,1.0002299E-1,1.5093E2,-9.965109E-2,-9.539577E-2,5.0433685E2,-9.0935355E-4,-9.4184645E-2],"split_indices":[1,3,0,3,0,0,2,0,0],"split_type":[0,0,0,0,0,0,0,0,0],"sum_hessian":[9.0352765E2,7.243996E2,1.7912805E2,5.4368054E2,1.8071909E2,1.7952011E1,5.257285E2,5.104204E2,1.53081045E1],"tree_param":{"num_deleted":"0","num_feature":"4","num_nodes":"9","size_leaf_vector":"1"}},{"base_weights":[-4.087492E-2,-2.8167245E-1,9.99103E-2,-6.395054E-2,-9.9574804E-2,-3.1029692E-1,4.567695E-2,-4.1884664E-3,-5.657379E-2,1.3579239E-1,-1.3567965E-2],"categories":[],"categories_nodes":[],"categories_segments":[],"categories_sizes":[],"default_left":[0,0,0,0,0,0,0,0,0,0,0],"id":49,"left_children":[1,3,-1,5,-1,7,9,-1,-1,-1,-1],"loss_changes":[2.1744307E2,1.0952996E2,0E0,1.4632094E1,0E0,1.1414257E1,8.9536674E1,0E0,0E0,0E0,0E0],"parents":[2147483647,0,0,1,1,3,3,5,5,6,6],"right_children":[2,4,-1,6,-1,8,10,-1,-1,-1,-1],"split_conditions":[1E0,9.5961E2,9.99103E-2,4.4425E2,-9.9574804E-2,2.8533E2,4.8311E2,-4.1884664E-3,-5.657379E-2,1.3579239E-1,-1.3567965E-2],"split_indices":[1,3,0,3,0,3,3,0,0,0,0],"split_type":[0,0,0,0,0,0,0,0,0,0,0],"sum_hessian":[8.6617554E2,7.0391864E2,1.6225688E2,5.402774E2,1.6364124E2,1.658228E2,3.744546E2,8.142598E1,8.439682E1,4.467936E1,3.2977524E2],"tree_param":{"num_deleted":"0","num_feature":"4","num_nodes":"11","size_leaf_vector":"1"}},{"base_weights":[-3.8839318E-2,-2.6232684E-1,9.979703E-2,-5.8741324E-2,-9.9494494E-2,-9.481597E-2,-2.9191755E-2,-4.1997936E-3,1.8607657E-1],"categories":[],"categories_nodes":[],"categories_segments":[],"categories_sizes":[],"default_left":[0,0,0,0,0,0,0,0,0],"id":50,"left_children":[1,3,-1,5,-1,-1,7,-1,-1],"loss_changes":[1.933477E2,1.0230626E2,0E0,1.4115559E1,0E0,0E0,1.2708877E1,0E0,0E0],"parents":[2147483647,0,0,1,1,3,3,6,6],"right_children":[2,4,-1,6,-1,-1,8,-1,-1],"split_conditions":[1E0,9.5961E2,9.979703E-2,1.5093E2,-9.9494494E-2,-9.481597E-2,4E0,-4.1997936E-3,1.8607657E-1],"split_indices":[1,3,0,3,0,0,0,0,0],"split_type":[0,0,0,0,0,0,0,0,0],"sum_hessian":[8.322941E2,6.8531854E2,1.4697554E2,5.3713544E2,1.481831E2,1.6272072E1,5.208634E2,5.18329E2,2.534372E0],"tree_param":{"num_deleted":"0","num_feature":"4","num_nodes":"9","size_leaf_vector":"1"}},{"base_weights":[-3.6327843E-2,-2.4338377E-1,9.9682085E-2,-5.3201202E-2,-9.940941E-2,-2.4774708E-2,-9.423568E-2,-3.920317E-3,2.2371864E-1],"categories":[],"categories_nodes":[],"categories_segments":[],"categories_sizes":[],"default_left":[0,0,0,0,0,0,0,0,0],"id":51,"left_children":[1,3,-1,5,-1,7,-1,-1,-1],"loss_changes":[1.7185931E2,9.547795E1,0E0,1.3497143E1,0E0,1.703846E1,0E0,0E0,0E0],"parents":[2147483647,0,0,1,1,3,3,5,5],"right_children":[2,4,-1,6,-1,8,-1,-1,-1],"split_conditions":[1E0,9.5961E2,9.9682085E-2,5.0433685E2,-9.940941E-2,4.9600006E2,-9.423568E-2,-3.920317E-3,2.2371864E-1],"split_indices":[1,3,0,2,0,2,0,0,0],"split_type":[0,0,0,0,0,0,0,0,0],"sum_hessian":[8.012488E2,6.681146E2,1.3313411E2,5.339231E2,1.3419151E2,5.183783E2,1.5544803E1,5.160691E2,2.3092024E0],"tree_param":{"num_deleted":"0","num_feature":"4","num_nodes":"9","size_leaf_vector":"1"}},{"base_weights":[-3.386971E-2,-2.2534662E-1,9.9564396E-2,-4.8118394E-2,-9.931875E-2,-9.414853E-2,-2.1052469E-2,3.4159486E-4,-9.289925E-2],"categories":[],"categories_nodes":[],"categories_segments":[],"categories_sizes":[],"default_left":[0,0,0,0,0,0,0,0,0],"id":52,"left_children":[1,3,-1,5,-1,-1,7,-1,-1],"loss_changes":[1.528516E2,8.890295E1,0E0,1.2846796E1,0E0,0E0,1.1499834E1,0E0,0E0],"parents":[2147483647,0,0,1,1,3,3,6,6],"right_children":[2,4,-1,6,-1,-1,8,-1,-1],"split_conditions":[1E0,9.5961E2,9.9564396E-2,1.5093E2,-9.931875E-2,-9.414853E-2,5.0433685E2,3.4159486E-4,-9.289925E-2],"split_indices":[1,3,0,3,0,0,2,0,0],"split_type":[0,0,0,0,0,0,0,0,0],"sum_hessian":[7.732541E2,6.5265027E2,1.2060383E2,5.3112256E2,1.2152771E2,1.4624536E1,5.16498E2,5.0391406E2,1.2583932E1],"tree_param":{"num_deleted":"0","num_feature":"4","num_nodes":"9","size_leaf_vector":"1"}},{"base_weights":[-3.1909775E-2,-2.0868886E-1,9.94428E-2,-4.4059377E-2,-9.922167E-2,-9.351551E-2,-1.9262917E-2,1.11452835E-2,-1.7912453E-2],"categories":[],"categories_nodes":[],"categories_segments":[],"categories_sizes":[],"default_left":[0,0,0,0,0,0,0,0,0],"id":53,"left_children":[1,3,-1,5,-1,-1,7,-1,-1],"loss_changes":[1.361368E2,8.250258E1,0E0,1.1689972E1,0E0,0E0,1.0813895E1,0E0,0E0],"parents":[2147483647,0,0,1,1,3,3,6,6],"right_children":[2,4,-1,6,-1,-1,8,-1,-1],"split_conditions":[1E0,9.5961E2,9.94428E-2,1.5093E2,-9.922167E-2,-9.351551E-2,6.1892E2,1.11452835E-2,-1.7912453E-2],"split_indices":[1,3,0,3,0,0,3,0,0],"split_type":[0,0,0,0,0,0,0,0,0],"sum_hessian":[7.4818964E2,6.389346E2,1.0925508E2,5.288686E2,1.10066E2,1.3324397E1,5.155442E2,2.8379407E2,2.3175009E2],"tree_param":{"num_deleted":"0","num_feature":"4","num_nodes":"9","size_leaf_vector":"1"}},{"base_weights":[-2.990785E-2,-1.9286788E-1,9.9316165E-2,-4.0200446E-2,-9.911728E-2,-1.233198E-1,2.5443915E-1,5.455418E-3,-5.9207838E-2,1.3972326E-2,2.1690588E-1],"categories":[],"categories_nodes":[],"categories_segments":[],"categories_sizes":[],"default_left":[0,0,0,0,0,0,0,0,0,0,0],"id":54,"left_children":[1,3,-1,5,-1,7,9,-1,-1,-1,-1],"loss_changes":[1.2130648E2,7.64346E1,0E0,1.2957068E1,0E0,3.4412514E1,2.5275318E1,0E0,0E0,0E0,0E0],"parents":[2147483647,0,0,1,1,3,3,5,5,6,6],"right_children":[2,4,-1,6,-1,8,10,-1,-1,-1,-1],"split_conditions":[1E0,9.5961E2,9.9316165E-2,7.9216E2,-9.911728E-2,6.1892E2,4.577597E2,5.455418E-3,-5.9207838E-2,1.3972326E-2,2.1690588E-1],"split_indices":[1,3,0,3,0,3,2,0,0,0,0],"split_type":[0,0,0,0,0,0,0,0,0,0,0],"sum_hessian":[7.2545966E2,6.2648175E2,9.897791E1,5.2678925E2,9.969254E1,4.1133185E2,1.1545738E2,2.9882434E2,1.1250752E2,1.0994303E2,5.514344E0],"tree_param":{"num_deleted":"0","num_feature":"4","num_nodes":"11","size_leaf_vector":"1"}},{"base_weights":[-2.7904041E-2,-1.7791672E-1,9.91833E-2,-3.657359E-2,-9.900465E-2,-2.7259308E-1,6.519367E-2,1.0301901E-3,-5.4090362E-2,1.0756105E-1,-9.846876E-3],"categories":[],"categories_nodes":[],"categories_segments":[],"categories_sizes":[],"default_left":[0,0,0,0,0,0,0,0,0,0,0],"id":55,"left_children":[1,3,-1,5,-1,7,9,-1,-1,-1,-1],"loss_changes":[1.08153046E2,7.06943E1,0E0,1.2648782E1,0E0,1.2045928E1,6.100206E1,0E0,0E0,0E0,0E0],"parents":[2147483647,0,0,1,1,3,3,5,5,6,6],"right_children":[2,4,-1,6,-1,8,10,-1,-1,-1,-1],"split_conditions":[1E0,9.5961E2,9.91833E-2,4.4425E2,-9.900465E-2,2.8533E2,4.8311E2,1.0301901E-3,-5.4090362E-2,1.0756105E-1,-9.846876E-3],"split_indices":[1,3,0,3,0,3,3,0,0,0,0],"split_type":[0,0,0,0,0,0,0,0,0,0,0],"sum_hessian":[7.048516E2,6.151787E2,8.967291E1,5.248746E2,9.030418E1,1.5762672E2,3.6724783E2,7.71961E1,8.043062E1,5.0416294E1,3.1683154E2],"tree_param":{"num_deleted":"0","num_feature":"4","num_nodes":"11","size_leaf_vector":"1"}},{"base_weights":[-2.6285674E-2,-1.642869E-1,9.9043034E-2,-3.3664033E-2,-9.888275E-2,-8.688885E-3,-9.318225E-2,-4.9590687E-3,6.965633E-2],"categories":[],"categories_nodes":[],"categories_segments":[],"categories_sizes":[],"default_left":[0,0,0,0,0,0,0,0,0],"id":56,"left_children":[1,3,-1,5,-1,7,-1,-1,-1],"loss_changes":[9.6558105E1,6.5211266E1,0E0,1.1745406E1,0E0,1.4769219E1,0E0,0E0,0E0],"parents":[2147483647,0,0,1,1,3,3,5,5],"right_children":[2,4,-1,6,-1,8,-1,-1,-1],"split_conditions":[1E0,9.5961E2,9.9043034E-2,5.0433685E2,-9.888275E-2,3.5783847E2,-9.318225E-2,-4.9590687E-3,6.965633E-2],"split_indices":[1,3,0,2,0,2,0,0,0],"split_type":[0,0,0,0,0,0,0,0,0],"sum_hessian":[6.860268E2,6.0477734E2,8.124942E1,5.2296985E2,8.180752E1,5.0980338E2,1.3166459E1,4.827363E2,2.706709E1],"tree_param":{"num_deleted":"0","num_feature":"4","num_nodes":"9","size_leaf_vector":"1"}},{"base_weights":[-2.4472952E-2,-1.5127179E-1,9.889417E-2,-3.0675635E-2,-9.875051E-2,-1.08784415E-1,2.3850432E-1,3.9591175E-3,-6.0205985E-2,1.3703981E-2,1.6945334E-1],"categories":[],"categories_nodes":[],"categories_segments":[],"categories_sizes":[],"default_left":[0,0,0,0,0,0,0,0,0,0,0],"id":57,"left_children":[1,3,-1,5,-1,7,9,-1,-1,-1,-1],"loss_changes":[8.622911E1,6.0099747E1,0E0,1.1003997E1,0E0,2.969421E1,1.7163122E1,0E0,0E0,0E0,0E0],"parents":[2147483647,0,0,1,1,3,3,5,5,6,6],"right_children":[2,4,-1,6,-1,8,10,-1,-1,-1,-1],"split_conditions":[1E0,9.5961E2,9.889417E-2,7.9216E2,-9.875051E-2,6.3866E2,4.577597E2,3.9591175E-3,-6.0205985E-2,1.3703981E-2,1.6945334E-1],"split_indices":[1,3,0,3,0,3,2,0,0,0,0],"split_type":[0,0,0,0,0,0,0,0,0,0,0],"sum_hessian":[6.688805E2,5.952529E2,7.3627556E1,5.211349E2,7.411802E1,4.043882E2,1.16746704E2,3.115844E2,9.28038E1,1.10163956E2,6.5827427E0],"tree_param":{"num_deleted":"0","num_feature":"4","num_nodes":"11","size_leaf_vector":"1"}},{"base_weights":[-2.2734197E-2,-1.3907453E-1,9.873523E-2,-2.7922299E-2,-9.860681E-2,-4.1470816E-3,-9.276673E-2,-1.6776186E-3,1.847242E-1],"categories":[],"categories_nodes":[],"categories_segments":[],"categories_sizes":[],"default_left":[0,0,0,0,0,0,0,0,0],"id":58,"left_children":[1,3,-1,5,-1,7,-1,-1,-1],"loss_changes":[7.7051735E1,5.531013E1,0E0,1.1133308E1,0E0,1.1914175E1,0E0,0E0,0E0],"parents":[2147483647,0,0,1,1,3,3,5,5],"right_children":[2,4,-1,6,-1,8,-1,-1,-1],"split_conditions":[1E0,9.5961E2,9.873523E-2,5.0433685E2,-9.860681E-2,4E0,-9.276673E-2,-1.6776186E-3,1.847242E-1],"split_indices":[1,3,0,2,0,0,0,0,0],"split_type":[0,0,0,0,0,0,0,0,0],"sum_hessian":[6.5351385E2,5.8679047E2,6.672339E1,5.196314E2,6.715905E1,5.0723273E2,1.2398708E1,5.0478033E2,2.4523807E0],"tree_param":{"num_deleted":"0","num_feature":"4","num_nodes":"9","size_leaf_vector":"1"}},{"base_weights":[-2.088774E-2,-1.2757055E-1,9.8564826E-2,-2.5167266E-2,-9.84504E-2,-2.4908204E-1,6.910494E-2,1.7165901E-3,-5.13348E-2,8.909769E-2,-7.898646E-3],"categories":[],"categories_nodes":[],"categories_segments":[],"categories_sizes":[],"default_left":[0,0,0,0,0,0,0,0,0,0,0],"id":59,"left_children":[1,3,-1,5,-1,7,9,-1,-1,-1,-1],"loss_changes":[6.887561E1,5.0852234E1,0E0,1.0970963E1,0E0,1.0841549E1,4.4611454E1,0E0,0E0,0E0,0E0],"parents":[2147483647,0,0,1,1,3,3,5,5,6,6],"right_children":[2,4,-1,6,-1,8,10,-1,-1,-1,-1],"split_conditions":[1E0,9.5961E2,9.8564826E-2,4.4425E2,-9.84504E-2,2.8533E2,4.8311E2,1.7165901E-3,-5.13348E-2,8.909769E-2,-7.898646E-3],"split_indices":[1,3,0,3,0,3,3,0,0,0,0],"split_type":[0,0,0,0,0,0,0,0,0,0,0],"sum_hessian":[6.392478E2,5.787765E2,6.04713E1,5.1791516E2,6.0861336E1,1.5296098E2,3.6495416E2,7.666054E1,7.6300446E1,5.4954334E1,3.0999985E2],"tree_param":{"num_deleted":"0","num_feature":"4","num_nodes":"11","size_leaf_vector":"1"}},{"base_weights":[-1.9584093E-2,-1.17356926E-1,9.838181E-2,-2.3203438E-2,-9.8279975E-2,-9.280087E-2,1.8341454E-4,9.6456505E-2,-2.0328106E-3],"categories":[],"categories_nodes":[],"categories_segments":[],"categories_sizes":[],"default_left":[0,0,0,0,0,0,0,0,0],"id":60,"left_children":[1,3,-1,5,-1,-1,7,-1,-1],"loss_changes":[6.1672607E1,4.6638504E1,0E0,1.0950297E1,0E0,0E0,1.0017678E1,0E0,0E0],"parents":[2147483647,0,0,1,1,3,3,6,6],"right_children":[2,4,-1,6,-1,-1,8,-1,-1],"split_conditions":[1E0,9.5961E2,9.838181E-2,1.5093E2,-9.8279975E-2,-9.280087E-2,1.703E2,9.6456505E-2,-2.0328106E-3],"split_indices":[1,3,0,3,0,0,3,0,0],"split_type":[0,0,0,0,0,0,0,0,0],"sum_hessian":[6.264589E2,5.7164056E2,5.4818375E1,5.164785E2,5.5162056E1,1.2038655E1,5.0443985E2,9.546999E0,4.9489285E2],"tree_param":{"num_deleted":"0","num_feature":"4","num_nodes":"9","size_leaf_vector":"1"}},{"base_weights":[-1.8102003E-2,-1.0449844E-1,1.0288962E0,-3.0301042E-2,-7.7746123E-1,1.9603701E-1,9.371611E-1,-1.08141124E-1,2.2993463E-1,-9.808495E-2,8.543867E-2,-7.5500906E-3,9.7834826E-2,2.1754445E-3,-5.6483705E-2,1.3470384E-2,1.4649428E-1],"categories":[],"categories_nodes":[],"categories_segments":[],"categories_sizes":[],"default_left":[0,0,0,0,0,0,0,0,0,0,0,0,0,0,0,0,0],"id":61,"left_children":[1,3,5,7,9,-1,11,13,15,-1,-1,-1,-1,-1,-1,-1,-1],"loss_changes":[5.5839703E1,2.8440773E1,2.1838417E0,1.0446789E1,1.9613476E1,0E0,1.940525E0,2.3546368E1,1.3772313E1,0E0,0E0,0E0,0E0,0E0,0E0,0E0,0E0],"parents":[2147483647,0,0,1,1,2,2,3,3,4,4,6,6,7,7,8,8],"right_children":[2,4,6,8,10,-1,12,14,16,-1,-1,-1,-1,-1,-1,-1,-1],"split_conditions":[4E0,9.5961E2,7.235824E1,7.9216E2,1E0,1.9603701E-1,3E0,6.3866E2,4.577597E2,-9.808495E-2,8.543867E-2,-7.5500906E-3,9.7834826E-2,2.1754445E-3,-5.6483705E-2,1.3470384E-2,1.4649428E-1],"split_indices":[0,3,2,3,1,0,1,3,2,0,0,0,0,0,0,0,0],"split_type":[0,0,0,0,0,0,0,0,0,0,0,0,0,0,0,0,0],"sum_hessian":[6.151185E2,5.6906085E2,4.60577E1,5.13491E2,5.556984E1,2.303024E0,4.3754677E1,3.9571243E2,1.17778595E2,4.976609E1,5.8037505E0,1.677486E0,4.207719E1,3.0882684E2,8.688559E1,1.1037659E2,7.4020057E0],"tree_param":{"num_deleted":"0","num_feature":"4","num_nodes":"17","size_leaf_vector":"1"}},{"base_weights":[-1.6325008E-2,-9.572702E-2,1.0181576E0,-2.7537525E-2,-7.736751E-1,1.7614321E-1,9.3111825E-1,-9.15094E-2,-6.3265786E-3,-9.7881354E-2,8.4325485E-2,-7.073955E-3,9.7588114E-2,8.022415E-2,-2.5232835E-3],"categories":[],"categories_nodes":[],"categories_segments":[],"categories_sizes":[],"default_left":[0,0,0,0,0,0,0,0,0,0,0,0,0,0,0],"id":62,"left_children":[1,3,5,7,9,-1,11,-1,13,-1,-1,-1,-1,-1,-1],"loss_changes":[4.984528E1,2.6023516E1,1.1584854E0,9.650712E0,1.7891432E1,0E0,1.900795E0,0E0,7.6938796E0,0E0,0E0,0E0,0E0,0E0,0E0],"parents":[2147483647,0,0,1,1,2,2,3,3,4,4,6,6,8,8],"right_children":[2,4,6,8,10,-1,12,-1,14,-1,-1,-1,-1,-1,-1],"split_conditions":[4E0,9.5961E2,7.235824E1,1.5093E2,1E0,1.7614321E-1,3E0,-9.15094E-2,1.703E2,-9.7881354E-2,8.4325485E-2,-7.073955E-3,9.7588114E-2,8.022415E-2,-2.5232835E-3],"split_indices":[0,3,2,3,1,0,1,0,3,0,0,0,0,0,0],"split_type":[0,0,0,0,0,0,0,0,0,0,0,0,0,0,0],"sum_hessian":[6.046466E2,5.623878E2,4.2258774E1,5.119367E2,5.045109E1,2.413285E0,3.984549E1,1.0965158E1,5.0097156E2,4.5121246E1,5.329845E0,1.6793334E0,3.8166157E1,1.0499614E1,4.9047195E2],"tree_param":{"num_deleted":"0","num_feature":"4","num_nodes":"15","size_leaf_vector":"1"}},{"base_weights":[-1.4687162E-2,-9.036746E-2,9.776803E-2,-1.7473554E-2,-9.767257E-2,4.915294E-3,-9.217043E-2,-3.0888603E-3,5.722704E-2],"categories":[],"categories_nodes":[],"categories_segments":[],"categories_sizes":[],"default_left":[0,0,0,0,0,0,0,0,0],"id":63,"left_children":[1,3,-1,5,-1,7,-1,-1,-1],"loss_changes":[4.487112E1,3.5838356E1,0E0,1.040621E1,0E0,1.0222751E1,0E0,0E0,0E0],"parents":[2147483647,0,0,1,1,3,3,5,5],"right_children":[2,4,-1,6,-1,8,-1,-1,-1],"split_conditions":[1E0,9.5961E2,9.776803E-2,5.0433685E2,-9.767257E-2,3.5783847E2,-9.217043E-2,-3.0888603E-3,5.722704E-2],"split_indices":[1,3,0,2,0,2,0,0,0],"split_type":[0,0,0,0,0,0,0,0,0],"sum_hessian":[5.9528735E2,5.539507E2,4.1336655E1,5.12798E2,4.1152683E1,5.013784E2,1.1419617E1,4.7250568E2,2.8872705E1],"tree_param":{"num_deleted":"0","num_feature":"4","num_nodes":"9","size_leaf_vector":"1"}},{"base_weights":[-1.362425E-2,-8.1160665E-2,1.0099325E0,-2.3763178E-2,-7.678638E-1,1.6071717E-1,9.1907275E-1,-9.063589E-2,-4.4475556E-3,-9.741681E-2,8.173326E-2,-8.905104E-3,9.703008E-2,-6.2699914E-3,2.4995051E-2],"categories":[],"categories_nodes":[],"categories_segments":[],"categories_sizes":[],"default_left":[0,0,0,0,0,0,0,0,0,0,0,0,0,0,0],"id":64,"left_children":[1,3,5,7,9,-1,11,-1,13,-1,-1,-1,-1,-1,-1],"loss_changes":[4.06999E1,2.1744246E1,5.0055313E-1,8.700254E0,1.4714109E1,0E0,1.8406506E0,0E0,7.4349313E0,0E0,0E0,0E0,0E0,0E0,0E0],"parents":[2147483647,0,0,1,1,2,2,3,3,4,4,6,6,8,8],"right_children":[2,4,6,8,10,-1,12,-1,14,-1,-1,-1,-1,-1,-1],"split_conditions":[4E0,9.5961E2,7.235824E1,1.5093E2,1E0,1.6071717E-1,3E0,-9.063589E-2,8.2923E2,-9.741681E-2,8.173326E-2,-8.905104E-3,9.703008E-2,-6.2699914E-3,2.4995051E-2],"split_indices":[0,3,2,3,1,0,1,0,3,0,0,0,0,0,0],"split_type":[0,0,0,0,0,0,0,0,0,0,0,0,0,0,0],"sum_hessian":[5.8658124E2,5.511368E2,3.544445E1,5.0957867E2,4.155809E1,2.4766223E0,3.296783E1,9.929786E0,4.996489E2,3.7113445E1,4.4446445E0,1.5585525E0,3.1409277E1,4.0716852E2,9.248038E1],"tree_param":{"num_deleted":"0","num_feature":"4","num_nodes":"15","size_leaf_vector":"1"}},{"base_weights":[-1.22972205E-2,-7.592718E-2,9.727135E-2,-1.4720097E-2,-9.716999E-2,5.673141E-3,-9.1395E-2,-1.9617042E-2,8.682287E-3],"categories":[],"categories_nodes":[],"categories_segments":[],"categories_sizes":[],"default_left":[0,0,0,0,0,0,0,0,0],"id":65,"left_children":[1,3,-1,5,-1,7,-1,-1,-1],"loss_changes":[3.641897E1,2.990118E1,0E0,9.389685E0,0E0,8.229595E0,0E0,0E0,0E0],"parents":[2147483647,0,0,1,1,3,3,5,5],"right_children":[2,4,-1,6,-1,8,-1,-1,-1],"split_conditions":[1E0,9.5961E2,9.727135E-2,5.0433685E2,-9.716999E-2,4.4425E2,-9.1395E-2,-1.9617042E-2,8.682287E-3],"split_indices":[1,3,0,2,0,3,0,0,0],"split_type":[0,0,0,0,0,0,0,0,0],"sum_hessian":[5.7888696E2,5.4462787E2,3.4259087E1,5.1074567E2,3.3882217E1,5.003912E2,1.0354462E1,1.4308324E2,3.5730798E2],"tree_param":{"num_deleted":"0","num_feature":"4","num_nodes":"9","size_leaf_vector":"1"}},{"base_weights":[-1.1516308E-2,-6.8901315E-2,9.9979144E-1,-2.0779518E-2,-7.6105297E-1,1.4732999E-1,9.0588164E-1,-8.953622E-2,-3.5007542E-3,-9.686417E-2,7.8883015E-2,-1.00421E-2,9.6373655E-2,7.253022E-2,-2.1353753E-3],"categories":[],"categories_nodes":[],"categories_segments":[],"categories_sizes":[],"default_left":[0,0,0,0,0,0,0,0,0,0,0,0,0,0,0],"id":66,"left_children":[1,3,5,7,9,-1,11,-1,13,-1,-1,-1,-1,-1,-1],"loss_changes":[3.3314854E1,1.8071728E1,3.6088943E-2,7.6852927E0,1.2112724E1,0E0,1.7455807E0,0E0,6.5201044E0,0E0,0E0,0E0,0E0,0E0,0E0],"parents":[2147483647,0,0,1,1,2,2,3,3,4,4,6,6,8,8],"right_children":[2,4,6,8,10,-1,12,-1,14,-1,-1,-1,-1,-1,-1],"split_conditions":[4E0,9.5961E2,7.235824E1,1.5093E2,1E0,1.4732999E-1,3E0,-8.953622E-2,1.703E2,-9.686417E-2,7.8883015E-2,-1.00421E-2,9.6373655E-2,7.253022E-2,-2.1353753E-3],"split_indices":[0,3,2,3,1,0,1,0,3,0,0,0,0,0,0],"split_type":[0,0,0,0,0,0,0,0,0,0,0,0,0,0,0],"sum_hessian":[5.718714E2,5.420458E2,2.9825632E1,5.0777292E2,3.4272858E1,2.50526E0,2.7320374E1,8.85295E0,4.9891995E2,3.0555347E1,3.7175093E0,1.4453235E0,2.587505E1,1.0981989E1,4.8793796E2],"tree_param":{"num_deleted":"0","num_feature":"4","num_nodes":"15","size_leaf_vector":"1"}},{"base_weights":[-1.0263666E-2,-6.289553E-2,9.871809E-2,-1.8896384E-2,-7.554716E-1,-8.855537E-2,-3.0679523E-3,-9.6550114E-2,7.7531606E-2,1.278695E-3,-7.591965E-2],"categories":[],"categories_nodes":[],"categories_segments":[],"categories_sizes":[],"default_left":[0,0,0,0,0,0,0,0,0,0,0],"id":67,"left_children":[1,3,-1,5,7,-1,9,-1,-1,-1,-1],"loss_changes":[2.9800297E1,1.6411085E1,0E0,6.9638195E0,1.1092358E1,0E0,6.0007653E0,0E0,0E0,0E0,0E0],"parents":[2147483647,0,0,1,1,3,3,4,4,6,6],"right_children":[2,4,-1,6,8,-1,10,-1,-1,-1,-1],"split_conditions":[4E0,9.5961E2,9.871809E-2,1.5093E2,1E0,-8.855537E-2,5.0433685E2,-9.6550114E-2,7.7531606E-2,1.278695E-3,-7.591965E-2],"split_indices":[0,3,0,3,1,0,2,0,0,0,0],"split_type":[0,0,0,0,0,0,0,0,0,0,0],"sum_hessian":[5.654705E2,5.38018E2,2.7452494E1,5.0684555E2,3.1172457E1,8.105337E0,4.987402E2,2.7736225E1,3.4362311E0,4.8946005E2,9.280167E0],"tree_param":{"num_deleted":"0","num_feature":"4","num_nodes":"11","size_leaf_vector":"1"}},{"base_weights":[-9.582567E-3,-5.8662187E-2,9.637451E-2,-1.1719222E-2,-9.623866E-2,5.5720964E-3,-8.990575E-2,-2.6753554E-3,4.9344715E-2],"categories":[],"categories_nodes":[],"categories_segments":[],"categories_sizes":[],"default_left":[0,0,0,0,0,0,0,0,0],"id":68,"left_children":[1,3,-1,5,-1,7,-1,-1,-1],"loss_changes":[2.6843884E1,2.2675732E1,0E0,7.820558E0,0E0,7.9086976E0,0E0,0E0,0E0],"parents":[2147483647,0,0,1,1,3,3,5,5],"right_children":[2,4,-1,6,-1,8,-1,-1,-1],"split_conditions":[1E0,9.5961E2,9.637451E-2,5.0433685E2,-9.623866E-2,3.5783847E2,-8.990575E-2,-2.6753554E-3,4.9344715E-2],"split_indices":[1,3,0,2,0,2,0,0,0],"split_type":[0,0,0,0,0,0,0,0,0],"sum_hessian":[5.5975024E2,5.337746E2,2.5975618E1,5.083803E2,2.5394287E1,4.9963773E2,8.742584E0,4.6947632E2,3.0161425E1],"tree_param":{"num_deleted":"0","num_feature":"4","num_nodes":"9","size_leaf_vector":"1"}},{"base_weights":[-8.896813E-3,-5.3452156E-2,9.7290896E-2,-1.669431E-2,-7.469052E-1,-7.069313E-2,2.1543124E-1,-9.583617E-2,7.434356E-2,5.780348E-3,-3.741307E-2,6.471153E-2,-1.2012347E-2],"categories":[],"categories_nodes":[],"categories_segments":[],"categories_sizes":[],"default_left":[0,0,0,0,0,0,0,0,0,0,0,0,0],"id":69,"left_children":[1,3,-1,5,7,9,11,-1,-1,-1,-1,-1,-1],"loss_changes":[2.4343063E1,1.35515375E1,0E0,6.3623233E0,9.146958E0,1.6068563E1,1.3956406E1,0E0,0E0,0E0,0E0,0E0,0E0],"parents":[2147483647,0,0,1,1,3,3,4,4,5,5,6,6],"right_children":[2,4,-1,6,8,10,12,-1,-1,-1,-1,-1,-1],"split_conditions":[4E0,9.5961E2,9.7290896E-2,8.2923E2,1E0,6.1892E2,8.8359E2,-9.583617E-2,7.434356E-2,5.780348E-3,-3.741307E-2,6.471153E-2,-1.2012347E-2],"split_indices":[0,3,0,3,1,3,3,0,0,0,0,0,0],"split_type":[0,0,0,0,0,0,0,0,0,0,0,0,0],"sum_hessian":[5.542916E2,5.311338E2,2.3157835E1,5.0536975E2,2.5764048E1,4.1055804E2,9.48117E1,2.287534E1,2.888708E0,2.8898935E2,1.21568695E2,4.106016E1,5.3751534E1],"tree_param":{"num_deleted":"0","num_feature":"4","num_nodes":"13","size_leaf_vector":"1"}},{"base_weights":[-8.208411E-3,-4.9304232E-2,9.5631845E-2,-9.997399E-3,-9.547609E-2,-1.9860215E-1,6.4832926E-2,7.158395E-3,-4.727674E-2,1.0356704E-1,-3.205385E-3],"categories":[],"categories_nodes":[],"categories_segments":[],"categories_sizes":[],"default_left":[0,0,0,0,0,0,0,0,0,0,0],"id":70,"left_children":[1,3,-1,5,-1,7,9,-1,-1,-1,-1],"loss_changes":[2.1866709E1,1.881526E1,0E0,7.181479E0,0E0,1.0739759E1,3.430949E1,0E0,0E0,0E0,0E0],"parents":[2147483647,0,0,1,1,3,3,5,5,6,6],"right_children":[2,4,-1,6,-1,8,10,-1,-1,-1,-1],"split_conditions":[1E0,9.5961E2,9.5631845E-2,4.4425E2,-9.547609E-2,2.8533E2,4.6486E2,7.158395E-3,-4.727674E-2,1.0356704E-1,-3.205385E-3],"split_indices":[1,3,0,3,0,3,3,0,0,0,0],"split_type":[0,0,0,0,0,0,0,0,0,0,0],"sum_hessian":[5.494704E2,5.2792584E2,2.1544579E1,5.069305E2,2.0995348E1,1.4352682E2,3.634037E2,7.266014E1,7.0866684E1,3.209651E1,3.3130716E2],"tree_param":{"num_deleted":"0","num_feature":"4","num_nodes":"11","size_leaf_vector":"1"}},{"base_weights":[-7.730428E-3,-4.5495667E-2,9.542191E-2,-1.4818136E-2,-7.3702765E-1,-8.772757E-2,-1.13607915E-4,-9.499345E-2,7.095613E-2,-5.7535726E-3,1.740631E-2],"categories":[],"categories_nodes":[],"categories_segments":[],"categories_sizes":[],"default_left":[0,0,0,0,0,0,0,0,0,0,0],"id":71,"left_children":[1,3,-1,5,7,-1,9,-1,-1,-1,-1],"loss_changes":[1.987398E1,1.115226E1,0E0,6.4027286E0,7.55182E0,0E0,4.9849143E0,0E0,0E0,0E0,0E0],"parents":[2147483647,0,0,1,1,3,3,4,4,6,6],"right_children":[2,4,-1,6,8,-1,10,-1,-1,-1,-1],"split_conditions":[4E0,9.5961E2,9.542191E-2,1.5093E2,1E0,-8.772757E-2,7.9216E2,-9.499345E-2,7.095613E-2,-5.7535726E-3,1.740631E-2],"split_indices":[0,3,0,3,1,0,3,0,0,0,0],"split_type":[0,0,0,0,0,0,0,0,0,0,0],"sum_hessian":[5.4487177E2,5.252054E2,1.9666367E1,5.0387408E2,2.1331282E1,7.4634547E0,4.9641064E2,1.889384E1,2.4374402E0,3.7383527E2,1.22575356E2],"tree_param":{"num_deleted":"0","num_feature":"4","num_nodes":"11","size_leaf_vector":"1"}},{"base_weights":[-7.1177203E-3,-4.159095E-2,9.4771974E-2,-8.680025E-3,-9.458138E-2,7.2409045E-3,-8.9039564E-2,-3.8360193E-4,1.1856075E-1],"categories":[],"categories_nodes":[],"categories_segments":[],"categories_sizes":[],"default_left":[0,0,0,0,0,0,0,0,0],"id":72,"left_children":[1,3,-1,5,-1,7,-1,-1,-1],"loss_changes":[1.7876583E1,1.5584493E1,0E0,7.1176467E0,0E0,6.51241E0,0E0,0E0,0E0],"parents":[2147483647,0,0,1,1,3,3,5,5],"right_children":[2,4,-1,6,-1,8,-1,-1,-1],"split_conditions":[1E0,9.5961E2,9.4771974E-2,5.0433685E2,-9.458138E-2,4.9600006E2,-8.9039564E-2,-3.8360193E-4,1.1856075E-1],"split_indices":[1,3,0,2,0,2,0,0,0],"split_type":[0,0,0,0,0,0,0,0,0],"sum_hessian":[5.4089404E2,5.2296936E2,1.792472E1,5.0557748E2,1.7391863E1,4.975845E2,7.992978E0,4.939381E2,3.6463904E0],"tree_param":{"num_deleted":"0","num_feature":"4","num_nodes":"9","size_leaf_vector":"1"}},{"base_weights":[-6.4772856E-3,-3.8543433E-2,9.3357496E-2,-1.2958758E-2,-7.256364E-1,-8.664789E-2,4.724036E-4,-9.400406E-2,6.7420505E-2,1.2745206E-2,-8.127296E-3],"categories":[],"categories_nodes":[],"categories_segments":[],"categories_sizes":[],"default_left":[0,0,0,0,0,0,0,0,0,0,0],"id":73,"left_children":[1,3,-1,5,7,-1,9,-1,-1,-1,-1],"loss_changes":[1.6257689E1,9.155474E0,0E0,5.7741838E0,6.245654E0,0E0,5.1676693E0,0E0,0E0,0E0,0E0],"parents":[2147483647,0,0,1,1,3,3,4,4,6,6],"right_children":[2,4,-1,6,8,-1,10,-1,-1,-1,-1],"split_conditions":[4E0,9.5961E2,9.3357496E-2,1.5093E2,1E0,-8.664789E-2,4.8311E2,-9.400406E-2,6.7420505E-2,1.2745206E-2,-8.127296E-3],"split_indices":[0,3,0,3,1,0,3,0,0,0,0],"split_type":[0,0,0,0,0,0,0,0,0,0,0],"sum_hessian":[5.37143E2,5.2035223E2,1.679075E1,5.0265424E2,1.769803E1,6.803361E0,4.9585086E2,1.5632217E1,2.0658128E0,1.9397675E2,3.018741E2],"tree_param":{"num_deleted":"0","num_feature":"4","num_nodes":"11","size_leaf_vector":"1"}},{"base_weights":[-5.99737E-3,-3.4965016E-2,9.378177E-2,-7.389691E-3,-9.3538456E-2,7.1933307E-3,-8.810621E-2,-2.183283E-3,4.275934E-2],"categories":[],"categories_nodes":[],"categories_segments":[],"categories_sizes":[],"default_left":[0,0,0,0,0,0,0,0,0],"id":74,"left_children":[1,3,-1,5,-1,7,-1,-1,-1],"loss_changes":[1.4654657E1,1.2900686E1,0E0,6.445693E0,0E0,6.0875363E0,0E0,0E0,0E0],"parents":[2147483647,0,0,1,1,3,3,5,5],"right_children":[2,4,-1,6,-1,8,-1,-1,-1],"split_conditions":[1E0,9.5961E2,9.378177E-2,5.0433685E2,-9.3538456E-2,3.5783847E2,-8.810621E-2,-2.183283E-3,4.275934E-2],"split_indices":[1,3,0,2,0,2,0,0,0],"split_type":[0,0,0,0,0,0,0,0,0],"sum_hessian":[5.3381396E2,5.188523E2,1.49617E1,5.0441284E2,1.4439423E1,4.971071E2,7.305764E0,4.6588828E2,3.121879E1],"tree_param":{"num_deleted":"0","num_feature":"4","num_nodes":"9","size_leaf_vector":"1"}},{"base_weights":[-5.6075603E-3,-3.2873057E-2,9.0870656E-2,-1.1543476E-2,-7.126716E-1,-2.104249E-1,4.5374837E-2,-9.2850074E-2,6.378191E-2,8.349354E-3,-7.431241E-2,4.343305E-2,-7.396503E-3],"categories":[],"categories_nodes":[],"categories_segments":[],"categories_sizes":[],"default_left":[0,0,0,0,0,0,0,0,0,0,0,0,0],"id":75,"left_children":[1,3,-1,5,7,9,11,-1,-1,-1,-1,-1,-1],"loss_changes":[1.3283662E1,7.491463E0,0E0,5.697935E0,5.173767E0,1.7596498E1,1.8205526E1,0E0,0E0,0E0,0E0,0E0,0E0],"parents":[2147483647,0,0,1,1,3,3,4,4,5,5,6,6],"right_children":[2,4,-1,6,8,10,12,-1,-1,-1,-1,-1,-1],"split_conditions":[4E0,9.5961E2,9.0870656E-2,4.0371E2,1E0,2.8533E2,4.8311E2,-9.2850074E-2,6.378191E-2,8.349354E-3,-7.431241E-2,4.343305E-2,-7.396503E-3],"split_indices":[0,3,0,3,1,3,3,0,0,0,0,0,0],"split_type":[0,0,0,0,0,0,0,0,0,0,0,0,0],"sum_hessian":[5.306567E2,5.1622644E2,1.4430194E1,5.0150797E2,1.4718498E1,1.1099104E2,3.905169E2,1.2959796E1,1.7587024E0,7.206965E1,3.892139E1,9.106757E1,2.9944934E2],"tree_param":{"num_deleted":"0","num_feature":"4","num_nodes":"13","size_leaf_vector":"1"}},{"base_weights":[-5.365277E-3,-2.9811438E-2,9.265559E-2,-6.6731423E-3,-9.233213E-2,-3.5297182E-1,2.796065E-2,6.2956796E-3,-6.309621E-2,1.8394803E-1,-1.5662812E-3],"categories":[],"categories_nodes":[],"categories_segments":[],"categories_sizes":[],"default_left":[0,0,0,0,0,0,0,0,0,0,0],"id":76,"left_children":[1,3,-1,5,-1,7,9,-1,-1,-1,-1],"loss_changes":[1.2070608E1,1.0663375E1,0E0,6.0553546E0,0E0,5.347049E0,3.631352E1,0E0,0E0,0E0,0E0],"parents":[2147483647,0,0,1,1,3,3,5,5,6,6],"right_children":[2,4,-1,6,-1,8,10,-1,-1,-1,-1],"split_conditions":[1E0,9.5961E2,9.265559E-2,2.2927E2,-9.233213E-2,1.703E2,2.4747E2,6.2956796E-3,-6.309621E-2,1.8394803E-1,-1.5662812E-3],"split_indices":[1,3,0,3,0,3,3,0,0,0,0],"split_type":[0,0,0,0,0,0,0,0,0,0,0],"sum_hessian":[5.276209E2,5.150774E2,1.2543503E1,5.030577E2,1.2019693E1,4.490155E1,4.5815616E2,1.8297853E1,2.6603697E1,9.805445E0,4.483507E2],"tree_param":{"num_deleted":"0","num_feature":"4","num_nodes":"11","size_leaf_vector":"1"}},{"base_weights":[-5.0192294E-3,-2.7344773E-2,9.19913E-2,-6.184121E-3,-9.1650285E-2,7.217863E-3,-8.713727E-2,-1.619623E-2,7.2128484E-3],"categories":[],"categories_nodes":[],"categories_segments":[],"categories_sizes":[],"default_left":[0,0,0,0,0,0,0,0,0],"id":77,"left_children":[1,3,-1,5,-1,7,-1,-1,-1],"loss_changes":[1.0891589E1,9.680342E0,0E0,5.848416E0,0E0,5.4711185E0,0E0,0E0,0E0],"parents":[2147483647,0,0,1,1,3,3,5,5],"right_children":[2,4,-1,6,-1,8,-1,-1,-1],"split_conditions":[1E0,9.5961E2,9.19913E-2,5.0433685E2,-9.1650285E-2,4.4425E2,-8.713727E-2,-1.619623E-2,7.2128484E-3],"split_indices":[1,3,0,2,0,3,0,0,0],"split_type":[0,0,0,0,0,0,0,0,0],"sum_hessian":[5.2522943E2,5.137981E2,1.1431361E1,5.0283823E2,1.0959854E1,4.9614447E2,6.693743E0,1.3716043E2,3.5898404E2],"tree_param":{"num_deleted":"0","num_feature":"4","num_nodes":"9","size_leaf_vector":"1"}},{"base_weights":[-4.8072212E-3,-2.6514994E-2,8.751124E-2,-1.02349315E-2,-6.9312847E-1,-8.557509E-2,2.0299726E-3,-9.077347E-2,5.7862896E-2,6.015219E-2,-1.3916747E-3],"categories":[],"categories_nodes":[],"categories_segments":[],"categories_sizes":[],"default_left":[0,0,0,0,0,0,0,0,0,0,0],"id":78,"left_children":[1,3,-1,5,7,-1,9,-1,-1,-1,-1],"loss_changes":[1.0031435E1,5.552827E0,0E0,5.1984186E0,3.854558E0,0E0,4.740065E0,0E0,0E0,0E0,0E0],"parents":[2147483647,0,0,1,1,3,3,4,4,6,6],"right_children":[2,4,-1,6,8,-1,10,-1,-1,-1,-1],"split_conditions":[4E0,9.5961E2,8.751124E-2,1.5093E2,1E0,-8.557509E-2,1.703E2,-9.077347E-2,5.7862896E-2,6.015219E-2,-1.3916747E-3],"split_indices":[0,3,0,3,1,0,3,0,0,0,0],"split_type":[0,0,0,0,0,0,0,0,0,0,0],"sum_hessian":[5.229611E2,5.1131674E2,1.1644407E1,5.0011816E2,1.1198554E1,6.167561E0,4.9395062E2,9.826576E0,1.3719772E0,1.1847349E1,4.8210327E2],"tree_param":{"num_deleted":"0","num_feature":"4","num_nodes":"11","size_leaf_vector":"1"}},{"base_weights":[-4.3814178E-3,-2.3281544E-2,9.062773E-2,-5.4882714E-3,-9.017068E-2,6.807824E-3,-8.610903E-2,-5.0430433E-3,1.8275158E-2],"categories":[],"categories_nodes":[],"categories_segments":[],"categories_sizes":[],"default_left":[0,0,0,0,0,0,0,0,0],"id":79,"left_children":[1,3,-1,5,-1,7,-1,-1,-1],"loss_changes":[9.003269E0,8.001275E0,0E0,5.2984295E0,0E0,5.0136933E0,0E0,0E0,0E0],"parents":[2147483647,0,0,1,1,3,3,5,5],"right_children":[2,4,-1,6,-1,8,-1,-1,-1],"split_conditions":[1E0,9.5961E2,9.062773E-2,5.0433685E2,-9.017068E-2,7.9216E2,-8.610903E-2,-5.0430433E-3,1.8275158E-2],"split_indices":[1,3,0,2,0,3,0,0,0],"split_type":[0,0,0,0,0,0,0,0,0],"sum_hessian":[5.208683E2,5.1123242E2,9.6358595E0,5.0206882E2,9.163595E0,4.9593365E2,6.135158E0,3.7473706E2,1.2119659E2],"tree_param":{"num_deleted":"0","num_feature":"4","num_nodes":"9","size_leaf_vector":"1"}},{"base_weights":[-4.173447E-3,-2.2797614E-2,8.443891E-2,6.405122E-2,-1.3391195E-1,1.20280765E-1,-1.0138795E0,-6.84361E-1,6.855388E-2,6.370645E-3,3.4836307E-1,-1.0495683E-1,-2.7116438E-2,-3.7524268E-2,-9.9540986E-2,-1.3114417E-3,7.823933E-2],"categories":[],"categories_nodes":[],"categories_segments":[],"categories_sizes":[],"default_left":[0,0,0,0,0,0,0,0,0,0,0,0,0,0,0,0,0],"id":80,"left_children":[1,3,-1,5,7,9,11,13,15,-1,-1,-1,-1,-1,-1,-1,-1],"loss_changes":[8.238228E0,4.9288893E0,0E0,1.7508963E1,2.5012089E1,5.182547E1,9.5181465E-2,5.427187E0,9.61078E0,0E0,0E0,0E0,0E0,0E0,0E0,0E0,0E0],"parents":[2147483647,0,0,1,1,3,3,4,4,5,5,6,6,7,7,8,8],"right_children":[2,4,-1,6,8,10,12,14,16,-1,-1,-1,-1,-1,-1,-1,-1],"split_conditions":[4E0,6.1892E2,8.443891E-2,3.6659952E2,7.3471E2,3.5783847E2,2.4963628E3,6.7668E2,3.8337915E2,6.370645E-3,3.4836307E-1,-1.0495683E-1,-2.7116438E-2,-3.7524268E-2,-9.9540986E-2,-1.3114417E-3,7.823933E-2],"split_indices":[0,3,0,2,3,2,2,3,2,0,0,0,0,0,0,0,0],"split_type":[0,0,0,0,0,0,0,0,0,0,0,0,0,0,0,0,0],"sum_hessian":[5.1906433E2,5.0886884E2,1.019547E1,2.8585968E2,2.2300916E2,2.7253168E2,1.3328021E1,5.932921E1,1.6367995E2,2.690254E2,3.5062873E0,1.2322741E1,1.00528E0,3.0863575E1,2.8465633E1,1.4775711E2,1.5922835E1],"tree_param":{"num_deleted":"0","num_feature":"4","num_nodes":"17","size_leaf_vector":"1"}},{"base_weights":[-3.9907447E-3,-2.0134702E-2,8.915079E-2,-3.4116895E-3,-8.954254E-2,-1.6543525E-1,5.8225825E-2,-2.4116844E-2,7.152753E-2,5.9097733E-2,-5.759899E-3],"categories":[],"categories_nodes":[],"categories_segments":[],"categories_sizes":[],"default_left":[0,0,0,0,0,0,0,0,0,0,0],"id":81,"left_children":[1,3,-1,5,-1,7,9,-1,-1,-1,-1],"loss_changes":[7.507018E0,7.459608E0,0E0,5.015757E0,0E0,9.403954E0,2.2487127E1,0E0,0E0,0E0,0E0],"parents":[2147483647,0,0,1,1,3,3,5,5,6,6],"right_children":[2,4,-1,6,-1,8,10,-1,-1,-1,-1],"split_conditions":[1E0,9.5961E2,8.915079E-2,4.4425E2,-8.954254E-2,3.5783847E2,4.8311E2,-2.4116844E-2,7.152753E-2,5.9097733E-2,-5.759899E-3],"split_indices":[1,3,0,3,0,2,3,0,0,0,0],"split_type":[0,0,0,0,0,0,0,0,0,0,0],"sum_hessian":[5.170275E2,5.0883188E2,8.195653E0,5.0027762E2,8.55424E0,1.3740465E2,3.62873E2,1.2719333E2,1.0211314E1,6.4070404E1,2.9880258E2],"tree_param":{"num_deleted":"0","num_feature":"4","num_nodes":"11","size_leaf_vector":"1"}},{"base_weights":[-3.703129E-3,-1.8512242E-2,8.825539E-2,-3.1718554E-3,-8.8672556E-2,8.241158E-3,-8.5096695E-2,-8.460359E-2,1.9241835E-3],"categories":[],"categories_nodes":[],"categories_segments":[],"categories_sizes":[],"default_left":[0,0,0,0,0,0,0,0,0],"id":82,"left_children":[1,3,-1,5,-1,7,-1,-1,-1],"loss_changes":[6.7861056E0,6.7671843E0,0E0,4.8496523E0,0E0,4.66648E0,0E0,0E0,0E0],"parents":[2147483647,0,0,1,1,3,3,5,5],"right_children":[2,4,-1,6,-1,8,-1,-1,-1],"split_conditions":[1E0,9.5961E2,8.825539E-2,5.0433685E2,-8.8672556E-2,1.5093E2,-8.5096695E-2,-8.460359E-2,1.9241835E-3],"split_indices":[1,3,0,2,0,3,0,0,0],"split_type":[0,0,0,0,0,0,0,0,0],"sum_hessian":[5.148044E2,5.0730655E2,7.497842E0,4.9948486E2,7.8217015E0,4.9382724E2,5.6576204E0,5.3132057E0,4.8851404E2],"tree_param":{"num_deleted":"0","num_feature":"4","num_nodes":"9","size_leaf_vector":"1"}},{"base_weights":[-3.7475375E-3,-1.8834177E-2,8.022408E-2,-6.8843565E-3,-7.307343E-1,-1.6570345E-2,9.346551E-1,-8.602387E-2,8.751407E-3,2.254933E-3,-3.1152347E-2,-9.363134E-2,3.006558E-1],"categories":[],"categories_nodes":[],"categories_segments":[],"categories_sizes":[],"default_left":[0,0,0,0,0,0,0,0,0,0,0,0,0],"id":83,"left_children":[1,3,-1,5,7,9,11,-1,-1,-1,-1,-1,-1],"loss_changes":[6.2707767E0,4.2994246E0,0E0,4.5629673E0,9.5943165E-1,5.7133346E0,2.2565311E1,0E0,0E0,0E0,0E0,0E0,0E0],"parents":[2147483647,0,0,1,1,3,3,4,4,5,5,6,6],"right_children":[2,4,-1,6,8,10,12,-1,-1,-1,-1,-1,-1],"split_conditions":[4E0,5.0433685E2,8.022408E-2,4.9600006E2,2.8906738E3,8.8359E2,9.399E2,-8.602387E-2,8.751407E-3,2.254933E-3,-3.1152347E-2,-9.363134E-2,3.006558E-1],"split_indices":[0,2,0,2,2,3,3,0,0,0,0,0,0],"split_type":[0,0,0,0,0,0,0,0,0,0,0,0,0],"sum_hessian":[5.134608E2,5.0498505E2,8.475773E0,4.9764142E2,7.343645E0,4.935465E2,4.0949073E0,6.2958775E0,1.0477675E0,4.36568E2,5.6978523E1,2.4398055E0,1.6551018E0],"tree_param":{"num_deleted":"0","num_feature":"4","num_nodes":"13","size_leaf_vector":"1"}},{"base_weights":[-3.1909428E-3,-1.5983662E-2,8.6611606E-2,-2.4502976E-3,-8.730338E-2,-8.42036E-2,8.023537E-3,4.502156E-3,-2.2504626E-2],"categories":[],"categories_nodes":[],"categories_segments":[],"categories_sizes":[],"default_left":[0,0,0,0,0,0,0,0,0],"id":84,"left_children":[1,3,-1,5,-1,-1,7,-1,-1],"loss_changes":[5.7189136E0,5.87323E0,0E0,4.4007773E0,0E0,0E0,4.274379E0,0E0,0E0],"parents":[2147483647,0,0,1,1,3,3,6,6],"right_children":[2,4,-1,6,-1,-1,8,-1,-1],"split_conditions":[1E0,9.5961E2,8.6611606E-2,1.5093E2,-8.730338E-2,-8.42036E-2,9.902323E1,4.502156E-3,-2.2504626E-2],"split_indices":[1,3,0,3,0,0,2,0,0],"split_type":[0,0,0,0,0,0,0,0,0],"sum_hessian":[5.1200903E2,5.0555093E2,6.4580727E0,4.9867932E2,6.871603E0,5.166135E0,4.935132E2,4.2660052E2,6.691269E1],"tree_param":{"num_deleted":"0","num_feature":"4","num_nodes":"9","size_leaf_vector":"1"}},{"base_weights":[-3.1460533E-3,-1.4891905E-2,8.557718E-2,-2.297101E-3,-8.653404E-2,-4.2192124E-2,2.0807259E-1,2.562694E-2,-9.454623E-3,1.5121709E-1,-1.615349E-2],"categories":[],"categories_nodes":[],"categories_segments":[],"categories_sizes":[],"default_left":[0,0,0,0,0,0,0,0,0,0,0],"id":85,"left_children":[1,3,-1,5,-1,7,9,-1,-1,-1,-1],"loss_changes":[5.1785173E0,5.41907E0,0E0,4.202835E0,0E0,6.601015E0,3.8722984E1,0E0,0E0,0E0,0E0],"parents":[2147483647,0,0,1,1,3,3,5,5,6,6],"right_children":[2,4,-1,6,-1,8,10,-1,-1,-1,-1],"split_conditions":[1E0,5.0433685E2,8.557718E-2,2E0,-8.653404E-2,2.8533E2,9.902323E1,2.562694E-2,-9.454623E-3,1.5121709E-1,-1.615349E-2],"split_indices":[1,2,0,0,0,3,2,0,0,0,0],"split_type":[0,0,0,0,0,0,0,0,0,0,0],"sum_hessian":[5.110345E2,5.0510968E2,5.924801E0,4.9872644E2,6.3832393E0,4.198958E2,7.8830635E1,6.208205E1,3.5781375E2,1.6725658E1,6.2104977E1],"tree_param":{"num_deleted":"0","num_feature":"4","num_nodes":"11","size_leaf_vector":"1"}},{"base_weights":[-2.892902E-3,-1.3690944E-2,8.447929E-2,-1.5725422E-3,-8.597907E-2,-1.5621309E-1,5.6722935E-2,-2.3267893E-2,7.3815934E-2,6.830503E-2,-1.8490547E-3],"categories":[],"categories_nodes":[],"categories_segments":[],"categories_sizes":[],"default_left":[0,0,0,0,0,0,0,0,0,0,0],"id":86,"left_children":[1,3,-1,5,-1,7,9,-1,-1,-1,-1],"loss_changes":[4.68376E0,5.176597E0,0E0,4.5061007E0,0E0,9.530239E0,1.7114262E1,0E0,0E0,0E0,0E0],"parents":[2147483647,0,0,1,1,3,3,5,5,6,6],"right_children":[2,4,-1,6,-1,8,10,-1,-1,-1,-1],"split_conditions":[1E0,9.5961E2,8.447929E-2,4.4425E2,-8.597907E-2,3.5783847E2,4.6486E2,-2.3267893E-2,7.3815934E-2,6.830503E-2,-1.8490547E-3],"split_indices":[1,3,0,3,0,2,3,0,0,0,0],"split_type":[0,0,0,0,0,0,0,0,0,0,0],"sum_hessian":[5.0943567E2,5.0399942E2,5.4362273E0,4.9787045E2,6.128973E0,1.358421E2,3.6202835E2,1.2582439E2,1.0017719E1,3.7947296E1,3.2408105E2],"tree_param":{"num_deleted":"0","num_feature":"4","num_nodes":"11","size_leaf_vector":"1"}},{"base_weights":[-2.6283562E-3,-1.2573553E-2,8.333757E-2,-9.480991E-4,-8.5490905E-2,-1.0177155E-2,8.716451E-1,1.0409699E-3,-5.32461E-2,-8.995166E-2,2.5665364E-1],"categories":[],"categories_nodes":[],"categories_segments":[],"categories_sizes":[],"default_left":[0,0,0,0,0,0,0,0,0,0,0],"id":87,"left_children":[1,3,-1,5,-1,7,9,-1,-1,-1,-1],"loss_changes":[4.240577E0,4.9324937E0,0E0,4.018767E0,0E0,5.31392E0,1.7987019E1,0E0,0E0,0E0,0E0],"parents":[2147483647,0,0,1,1,3,3,5,5,6,6],"right_children":[2,4,-1,6,-1,8,10,-1,-1,-1,-1],"split_conditions":[1E0,5.0433685E2,8.333757E-2,4.9600006E2,-8.5490905E-2,3.931443E2,9.399E2,1.0409699E-3,-5.32461E-2,-8.995166E-2,2.5665364E-1],"split_indices":[1,2,0,2,0,2,3,0,0,0,0],"split_type":[0,0,0,0,0,0,0,0,0,0,0],"sum_hessian":[5.0777847E2,5.027823E2,4.9961944E0,4.969251E2,5.8571634E0,4.9270233E2,4.222771E0,4.7496088E2,1.7741457E1,2.2944005E0,1.9283708E0],"tree_param":{"num_deleted":"0","num_feature":"4","num_nodes":"11","size_leaf_vector":"1"}},{"base_weights":[-2.2740709E-3,-8.146049E-2,7.092932E-3,-3.6029865E-3,7.4622415E-2,5.370501E-1,-1.8494416E-2,7.041236E-2,-5.8514226E-2,-5.8887303E-2,1.2807562E-3],"categories":[],"categories_nodes":[],"categories_segments":[],"categories_sizes":[],"default_left":[0,0,0,0,0,0,0,0,0,0,0],"id":88,"left_children":[1,-1,3,5,-1,7,9,-1,-1,-1,-1],"loss_changes":[3.8693883E0,0E0,3.9789693E0,4.0095987E0,0E0,2.9149218E0,8.656643E0,0E0,0E0,0E0,0E0],"parents":[2147483647,0,0,2,2,3,3,5,5,6,6],"right_children":[2,-1,4,6,-1,8,10,-1,-1,-1,-1],"split_conditions":[1.5093E2,-8.146049E-2,4E0,1.703E2,7.4622415E-2,2E0,2.2927E2,7.041236E-2,-5.8514226E-2,-5.8887303E-2,1.2807562E-3],"split_indices":[3,0,0,3,0,0,3,0,0,0,0],"split_type":[0,0,0,0,0,0,0,0,0,0,0],"sum_hessian":[5.0676144E2,4.7968946E0,5.0196454E2,4.9578522E2,6.1793485E0,1.2349669E1,4.8343555E2,1.1073569E1,1.2761004E0,2.422368E1,4.5921185E2],"tree_param":{"num_deleted":"0","num_feature":"4","num_nodes":"11","size_leaf_vector":"1"}},{"base_weights":[-2.2906438E-3,-1.09558245E-2,8.130326E-2,4.514618E-5,-8.468922E-2,-5.398194E-2,1.6325241E-1,5.0834767E-3,-4.7887642E-2,8.244242E-3,1.2344313E-1],"categories":[],"categories_nodes":[],"categories_segments":[],"categories_sizes":[],"default_left":[0,0,0,0,0,0,0,0,0,0,0],"id":89,"left_children":[1,3,-1,5,-1,7,9,-1,-1,-1,-1],"loss_changes":[3.5907328E0,4.6223927E0,0E0,4.392166E0,0E0,1.6691097E1,1.06217575E1,0E0,0E0,0E0,0E0],"parents":[2147483647,0,0,1,1,3,3,5,5,6,6],"right_children":[2,4,-1,6,-1,8,10,-1,-1,-1,-1],"split_conditions":[1E0,9.5961E2,8.130326E-2,7.9216E2,-8.468922E-2,6.3866E2,4.577597E2,5.0834767E-3,-4.7887642E-2,8.244242E-3,1.2344313E-1],"split_indices":[1,3,0,3,0,3,2,0,0,0,0],"split_type":[0,0,0,0,0,0,0,0,0,0,0],"sum_hessian":[5.0598715E2,5.016423E2,4.344846E0,4.9611337E2,5.5289345E0,3.732307E2,1.2288266E2,3.0008377E2,7.314695E1,1.1526407E2,7.6185865E0],"tree_param":{"num_deleted":"0","num_feature":"4","num_nodes":"11","size_leaf_vector":"1"}},{"base_weights":[-2.1512685E-3,-8.022792E-2,6.5513654E-3,-2.7308662E-3,7.0170856E-1,1.7700525E-2,-3.4846878E-1,8.999751E-2,3.9666715E-1,1.5709331E-5,3.131826E-1,-9.985095E-2,3.7421554E-2,-3.1528372E-2,7.039792E-2],"categories":[],"categories_nodes":[],"categories_segments":[],"categories_sizes":[],"default_left":[0,0,0,0,0,0,0,0,0,0,0,0,0,0,0],"id":90,"left_children":[1,-1,3,5,7,9,11,-1,13,-1,-1,-1,-1,-1,-1],"loss_changes":[3.5274656E0,0E0,3.2371256E0,3.508238E0,4.280567E-2,2.5625319E1,1.339163E1,0E0,1.1829166E0,0E0,0E0,0E0,0E0,0E0,0E0],"parents":[2147483647,0,0,2,2,3,3,4,4,5,5,6,6,8,8],"right_children":[2,-1,4,6,8,10,12,-1,14,-1,-1,-1,-1,-1,-1],"split_conditions":[1.5093E2,-8.022792E-2,4E0,3.931443E2,3.6659952E2,3.8337915E2,7.9216E2,8.999751E-2,5E0,1.5709331E-5,3.131826E-1,-9.985095E-2,3.7421554E-2,-3.1528372E-2,7.039792E-2],"split_indices":[3,0,0,2,2,2,3,0,1,0,0,0,0,0,0],"split_type":[0,0,0,0,0,0,0,0,0,0,0,0,0,0,0],"sum_hessian":[5.048306E2,4.450598E0,5.0038E2,4.9476956E2,5.610442E0,4.6805844E2,2.6711123E1,2.218291E0,3.3921514E0,4.6643085E2,1.6275887E0,1.3861395E1,1.2849728E1,1.0149267E0,2.3772244E0],"tree_param":{"num_deleted":"0","num_feature":"4","num_nodes":"15","size_leaf_vector":"1"}},{"base_weights":[-1.6107551E-3,-2.6938286E-1,2.2139091E-2,1.3115096E-1,-5.615777E-1,1.4746913E0,-1.7544303E-2,-7.8730494E-2,4.557562E-1,-9.0229295E-2,-3.5053086E-1,1.7634498E-1,-5.812819E-2,-4.291566E-1,3.6520813E-2,5.93112E-2,-5.5345517E-2,2.0343881E-2,-9.002392E-2,1.135912E-2,-7.0121214E-2,2.9230827E-2,-4.8115063E-3],"categories":[],"categories_nodes":[],"categories_segments":[],"categories_sizes":[],"default_left":[0,0,0,0,0,0,0,0,0,0,0,0,0,0,0,0,0,0,0,0,0,0,0],"id":91,"left_children":[1,3,5,7,9,11,13,-1,15,-1,17,-1,-1,19,21,-1,-1,-1,-1,-1,-1,-1,-1],"loss_changes":[3.2172384E0,4.8970537E0,2.6814486E1,5.7833157E0,1.4108472E0,8.369289E0,1.0104884E1,0E0,2.2796066E0,0E0,5.197736E0,0E0,0E0,7.863349E0,8.709397E0,0E0,0E0,0E0,0E0,0E0,0E0,0E0,0E0],"parents":[2147483647,0,0,1,1,2,2,3,3,4,4,5,5,6,6,8,8,10,10,13,13,14,14],"right_children":[2,4,6,8,10,12,14,-1,16,-1,18,-1,-1,20,22,-1,-1,-1,-1,-1,-1,-1,-1],"split_conditions":[2.2927E2,1.703E2,2.4747E2,1.5093E2,1.9084E2,2E0,4.0371E2,-7.8730494E-2,2E0,-9.0229295E-2,2.0943E2,1.7634498E-1,-5.812819E-2,2.8533E2,4.8311E2,5.93112E-2,-5.5345517E-2,2.0343881E-2,-9.002392E-2,1.135912E-2,-7.0121214E-2,2.9230827E-2,-4.8115063E-3],"split_indices":[3,3,3,3,3,0,3,0,0,0,3,0,0,3,3,0,0,0,0,0,0,0,0],"split_type":[0,0,0,0,0,0,0,0,0,0,0,0,0,0,0,0,0,0,0,0,0,0,0],"sum_hessian":[5.039533E2,4.021371E1,4.637396E2,1.719473E1,2.3018982E1,1.1370693E1,4.523689E2,4.1178985E0,1.3076832E1,7.551874E0,1.5467108E1,1.0095127E1,1.2755667E0,5.171452E1,4.006544E2,1.1873169E1,1.2036624E0,8.017436E0,7.449672E0,1.7461496E1,3.4253025E1,9.900044E1,3.0165393E2],"tree_param":{"num_deleted":"0","num_feature":"4","num_nodes":"23","size_leaf_vector":"1"}},{"base_weights":[-2.4691545E-3,-1.0230579E-2,7.951511E-2,1.1966706E-4,-8.389374E-2,-2.3485802E-2,3.2793078E-1,2.1961138E-3,-6.927067E-2,1.8230653E-1,-5.4105977E-3],"categories":[],"categories_nodes":[],"categories_segments":[],"categories_sizes":[],"default_left":[0,0,0,0,0,0,0,0,0,0,0],"id":92,"left_children":[1,3,-1,5,-1,7,9,-1,-1,-1,-1],"loss_changes":[3.134075E0,4.297895E0,0E0,3.8449183E0,0E0,1.4112347E1,1.9163177E1,0E0,0E0,0E0,0E0],"parents":[2147483647,0,0,1,1,3,3,5,5,6,6],"right_children":[2,4,-1,6,-1,8,10,-1,-1,-1,-1],"split_conditions":[1E0,5.0433685E2,7.951511E-2,3.5783847E2,-8.389374E-2,9.902323E1,3.6659952E2,2.1961138E-3,-6.927067E-2,1.8230653E-1,-5.4105977E-3],"split_indices":[1,2,0,2,0,2,2,0,0,0,0],"split_type":[0,0,0,0,0,0,0,0,0,0,0],"sum_hessian":[5.039438E2,5.0006494E2,3.878822E0,4.9488388E2,5.1810637E0,4.625074E2,3.2376507E1,4.3400143E2,2.850595E1,5.8215184E0,2.6554989E1],"tree_param":{"num_deleted":"0","num_feature":"4","num_nodes":"11","size_leaf_vector":"1"}},{"base_weights":[-2.263219E-3,-1.350266E-1,4.5534387E-2,1.1259688E-1,-4.101529E-1,4.119604E-1,-4.222668E-2,-2.542154E-1,5.755982E-1,-6.541269E-1,1.2808354E0,2.1155605E-1,1.4385555E0,-2.1759434E-1,1.11526206E-1,1.10940505E-2,-5.3775765E-2,1.1592706E-1,1.0248068E-2,-9.533031E-2,-5.2224208E-2,2.8948268E-1,-7.97341E-2,3.4266945E-2,3.6323338E-3,2.67331E-1,-9.4225466E-2,2.0625172E-3,-7.661753E-2,2.605937E-3,7.593082E-2],"categories":[],"categories_nodes":[],"categories_segments":[],"categories_sizes":[],"default_left":[0,0,0,0,0,0,0,0,0,0,0,0,0,0,0,0,0,0,0,0,0,0,0,0,0,0,0,0,0,0,0],"id":93,"left_children":[1,3,5,7,9,11,13,15,17,19,21,23,25,27,29,-1,-1,-1,-1,-1,-1,-1,-1,-1,-1,-1,-1,-1,-1,-1,-1],"loss_changes":[3.2039273E0,9.1514015E0,1.1956785E1,1.2225805E1,2.7045202E1,1.4474149E1,8.125133E0,4.240323E0,8.647872E0,1.7186928E0,3.0307507E1,1.3953216E0,3.650197E1,1.8402012E1,8.879792E0,0E0,0E0,0E0,0E0,0E0,0E0,0E0,0E0,0E0,0E0,0E0,0E0,0E0,0E0,0E0,0E0],"parents":[2147483647,0,0,1,1,2,2,3,3,4,4,5,5,6,6,7,7,8,8,9,9,10,10,11,11,12,12,13,13,14,14],"right_children":[2,4,6,8,10,12,14,16,18,20,22,24,26,28,30,-1,-1,-1,-1,-1,-1,-1,-1,-1,-1,-1,-1,-1,-1,-1,-1],"split_conditions":[4.4425E2,2.8533E2,4.8311E2,2.2927E2,3.5783847E2,7.235824E1,7.3471E2,1.703E2,2.4747E2,3.4421E2,3.6659952E2,4.6486E2,2.647337E2,6.3866E2,3.8337915E2,1.10940505E-2,-5.3775765E-2,1.1592706E-1,1.0248068E-2,-9.533031E-2,-5.2224208E-2,2.8948268E-1,-7.97341E-2,3.4266945E-2,3.6323338E-3,2.67331E-1,-9.4225466E-2,2.0625172E-3,-7.661753E-2,2.605937E-3,7.593082E-2],"split_indices":[3,3,3,3,2,2,3,3,3,3,2,3,2,3,2,0,0,0,0,0,0,0,0,0,0,0,0,0,0,0,0],"split_type":[0,0,0,0,0,0,0,0,0,0,0,0,0,0,0,0,0,0,0,0,0,0,0,0,0,0,0,0,0,0,0],"sum_hessian":[5.0292273E2,1.3264922E2,3.7027353E2,7.012498E1,6.2524235E1,7.083293E1,2.9944058E2,3.9378414E1,3.0746567E1,5.5176586E1,7.347649E0,6.027296E1,1.0559968E1,1.3969354E2,1.5974706E2,1.7478153E1,2.190026E1,1.3115744E1,1.7630823E1,1.4975917E1,4.020067E1,3.9145188E0,3.4331303E0,3.3930107E1,2.6342852E1,6.872724E0,3.687244E0,9.806956E1,4.1623985E1,1.4204607E2,1.7700996E1],"tree_param":{"num_deleted":"0","num_feature":"4","num_nodes":"31","size_leaf_vector":"1"}},{"base_weights":[-2.5354475E-3,-7.748355E-2,4.9730735E-3,-3.0952424E-3,6.691085E-1,2.785769E-2,-2.037299E-1,8.680599E-2,3.3897814E-1,-1.120318E-3,4.206868E-1,-9.9068396E-2,7.2371787E-3,-2.546827E-2,6.480016E-2],"categories":[],"categories_nodes":[],"categories_segments":[],"categories_sizes":[],"default_left":[0,0,0,0,0,0,0,0,0,0,0,0,0,0,0],"id":94,"left_children":[1,-1,3,5,7,9,11,-1,13,-1,-1,-1,-1,-1,-1],"loss_changes":[2.9137154E0,0E0,2.6703856E0,3.0672069E0,9.8614454E-2,6.990746E1,1.4414303E1,0E0,8.786647E-1,0E0,0E0,0E0,0E0,0E0,0E0],"parents":[2147483647,0,0,2,2,3,3,4,4,5,5,6,6,8,8],"right_children":[2,-1,4,6,8,10,12,-1,14,-1,-1,-1,-1,-1,-1],"split_conditions":[1.5093E2,-7.748355E-2,4E0,9.902323E1,3.6659952E2,8.943487E1,2.5800204E2,8.680599E-2,3.2561135E3,-1.120318E-3,4.206868E-1,-9.9068396E-2,7.2371787E-3,-2.546827E-2,6.480016E-2],"split_indices":[3,0,0,2,2,2,2,0,2,0,0,0,0,0,0],"split_type":[0,0,0,0,0,0,0,0,0,0,0,0,0,0,0],"sum_hessian":[5.008015E2,3.8380594E0,4.9696347E2,4.919819E2,4.9815516E0,4.2697192E2,6.500999E1,2.091609E0,2.8899426E0,4.240061E2,2.9658308E0,1.6212494E1,4.879749E1,1.0495372E0,1.8404055E0],"tree_param":{"num_deleted":"0","num_feature":"4","num_nodes":"15","size_leaf_vector":"1"}},{"base_weights":[-2.1229626E-3,-7.589271E-2,4.823168E-3,-1.7589373E-3,7.6576315E-2,8.651775E-3,-8.3609514E-2,2.7192368E-3,-3.2974996E-2],"categories":[],"categories_nodes":[],"categories_segments":[],"categories_sizes":[],"default_left":[0,0,0,0,0,0,0,0,0],"id":95,"left_children":[1,-1,3,5,-1,7,-1,-1,-1],"loss_changes":[2.6368227E0,0E0,2.4923093E0,4.298752E0,0E0,3.076858E0,0E0,0E0,0E0],"parents":[2147483647,0,0,2,2,3,3,5,5],"right_children":[2,-1,4,6,-1,8,-1,-1,-1],"split_conditions":[1.5093E2,-7.589271E-2,1E0,9.5961E2,7.6576315E-2,3.931443E2,-8.3609514E-2,2.7192368E-3,-3.2974996E-2],"split_indices":[3,0,1,3,0,2,0,0,0],"split_type":[0,0,0,0,0,0,0,0,0],"sum_hessian":[4.9990027E2,3.5618865E0,4.963384E2,4.9307104E2,3.2673597E0,4.8797183E2,5.099203E0,4.6349707E2,2.4474758E1],"tree_param":{"num_deleted":"0","num_feature":"4","num_nodes":"9","size_leaf_vector":"1"}},{"base_weights":[-2.1966782E-3,-5.1491722E-2,1.020496E-1,1.7562335E-2,-9.7712636E-2,2.3752762E-2,6.915886E-1,6.1908044E-2,-9.783679E-1,1.153951E-1,-9.213285E-1,2.845322E-1,-1.5707955E-1,2.6040764E-3,1.6001053E-1,-1.0578847E-1,7.9406373E-4,5.141302E-3,3.530458E-1,-9.7329296E-2,-2.302423E-2,-9.8516524E-2,6.46989E-2],"categories":[],"categories_nodes":[],"categories_segments":[],"categories_sizes":[],"default_left":[0,0,0,0,0,0,0,0,0,0,0,0,0,0,0,0,0,0,0,0,0,0,0],"id":96,"left_children":[1,3,5,7,-1,9,11,13,15,17,19,-1,21,-1,-1,-1,-1,-1,-1,-1,-1,-1,-1],"loss_changes":[2.5773463E0,2.1780989E1,7.4165497E0,1.4097874E1,0E0,1.2507598E1,3.4889175E1,1.6798033E1,1.0756884E0,2.8533651E1,2.3444557E-1,0E0,1.0268612E1,0E0,0E0,0E0,0E0,0E0,0E0,0E0,0E0,0E0,0E0],"parents":[2147483647,0,0,1,1,2,2,3,3,5,5,6,6,7,7,8,8,9,9,10,10,12,12],"right_children":[2,4,6,8,-1,10,12,14,16,18,20,-1,22,-1,-1,-1,-1,-1,-1,-1,-1,-1,-1],"split_conditions":[7.3471E2,6.7668E2,3.8337915E2,3.6659952E2,-9.7712636E-2,9.902323E1,8.1074E2,3.5783847E2,2.4670884E3,8.943487E1,9.399E2,2.845322E-1,9.399E2,2.6040764E-3,1.6001053E-1,-1.0578847E-1,7.9406373E-4,5.141302E-3,3.530458E-1,-9.7329296E-2,-2.302423E-2,-9.8516524E-2,6.46989E-2],"split_indices":[3,3,2,2,0,2,3,2,2,2,3,0,3,0,0,0,0,0,0,0,0,0,0],"split_type":[0,0,0,0,0,0,0,0,0,0,0,0,0,0,0,0,0,0,0,0,0,0,0],"sum_hessian":[4.9952136E2,3.3949167E2,1.6002972E2,3.1683612E2,2.2655535E1,1.4218622E2,1.7843498E1,3.0422763E2,1.2608482E1,1.304178E2,1.1768414E1,4.37868E0,1.3464819E1,2.9828915E2,5.9384985E0,1.160066E1,1.0078216E0,1.2901572E2,1.4020879E0,1.0565607E1,1.2028061E0,6.5223866E0,6.9424324E0],"tree_param":{"num_deleted":"0","num_feature":"4","num_nodes":"23","size_leaf_vector":"1"}},{"base_weights":[-2.0433795E-3,-1.2528981E-1,4.156046E-2,1.08471796E-1,-3.9856267E-1,4.7014982E-1,-1.5255662E-2,-2.247666E-1,4.9368647E-1,-6.307722E-1,1.1048659E0,5.5564135E-1,-8.245652E-2,4.431938E-2,-3.6612204E-1,1.3238519E-2,-5.117495E-2,6.387193E-2,-7.6426774E-2,-9.464397E-2,-4.9679726E-2,2.222246E-1,-7.451946E-2,3.598277E-2,3.7766233E-1,-1.0070734E-3,3.0357406E-1,-1.0091466E-1,2.4863198E-2],"categories":[],"categories_nodes":[],"categories_segments":[],"categories_sizes":[],"default_left":[0,0,0,0,0,0,0,0,0,0,0,0,0,0,0,0,0,0,0,0,0,0,0,0,0,0,0,0,0],"id":97,"left_children":[1,3,5,7,9,11,13,15,17,19,21,23,-1,25,27,-1,-1,-1,-1,-1,-1,-1,-1,-1,-1,-1,-1,-1,-1],"loss_changes":[2.6898913E0,8.399057E0,9.011211E0,9.26162E0,2.1824812E1,5.2522297E0,6.8609147E0,4.055667E0,6.5775146E0,1.7737579E0,1.9145187E1,2.4643106E1,0E0,4.5720177E1,1.9081987E1,0E0,0E0,0E0,0E0,0E0,0E0,0E0,0E0,0E0,0E0,0E0,0E0,0E0,0E0],"parents":[2147483647,0,0,1,1,2,2,3,3,4,4,5,5,6,6,7,7,8,8,9,9,10,10,11,11,13,13,14,14],"right_children":[2,4,6,8,10,12,14,16,18,20,22,24,-1,26,28,-1,-1,-1,-1,-1,-1,-1,-1,-1,-1,-1,-1,-1,-1],"split_conditions":[4.4425E2,2.8533E2,4.6486E2,2.2927E2,3.5783847E2,2.647337E2,9.902323E1,1.703E2,2E0,3.4421E2,3.6659952E2,2.5001312E2,-8.245652E-2,8.943487E1,3.8337915E2,1.3238519E-2,-5.117495E-2,6.387193E-2,-7.6426774E-2,-9.464397E-2,-4.9679726E-2,2.222246E-1,-7.451946E-2,3.598277E-2,3.7766233E-1,-1.0070734E-3,3.0357406E-1,-1.0091466E-1,2.4863198E-2],"split_indices":[3,3,3,3,2,2,2,3,0,3,2,2,0,2,2,0,0,0,0,0,0,0,0,0,0,0,0,0,0],"split_type":[0,0,0,0,0,0,0,0,0,0,0,0,0,0,0,0,0,0,0,0,0,0,0,0,0,0,0,0,0],"sum_hessian":[4.9856738E2,1.2980359E2,3.6876376E2,7.028437E1,5.9519222E1,4.2311832E1,3.2645193E2,3.7907864E1,3.237651E1,5.2058983E1,7.4602385E0,4.0226467E1,2.0853624E0,2.7981473E2,4.6637207E1,1.7129192E1,2.0778671E1,2.9470982E1,2.9055295E0,1.3704519E1,3.8354465E1,4.5256867E0,2.9345515E0,3.8969124E1,1.257343E0,2.757968E2,4.017914E0,2.2480919E1,2.4156288E1],"tree_param":{"num_deleted":"0","num_feature":"4","num_nodes":"29","size_leaf_vector":"1"}},{"base_weights":[-1.9044207E-3,-7.440723E-2,4.6043447E-3,-2.529851E-3,6.432122E-1,5.9815384E-3,-6.6286904E-1,8.3810315E-2,2.899521E-1,-3.3450518E-3,1.6046194E-2,-8.084154E-2,4.85846E-3,-2.2089375E-2,5.924156E-2],"categories":[],"categories_nodes":[],"categories_segments":[],"categories_sizes":[],"default_left":[0,0,0,0,0,0,0,0,0,0,0,0,0,0,0],"id":98,"left_children":[1,-1,3,5,7,9,11,-1,13,-1,-1,-1,-1,-1,-1],"loss_changes":[2.4088726E0,0E0,2.255117E0,2.7588434E0,1.3348532E-1,2.9591894E0,6.8608594E-1,0E0,6.6752356E-1,0E0,0E0,0E0,0E0,0E0,0E0],"parents":[2147483647,0,0,2,2,3,3,4,4,5,5,6,6,8,8],"right_children":[2,-1,4,6,8,10,12,-1,14,-1,-1,-1,-1,-1,-1],"split_conditions":[1.5093E2,-7.440723E-2,4E0,9.5961E2,3.6659952E2,8.2923E2,4.62072E3,8.3810315E-2,3.3240383E3,-3.3450518E-3,1.6046194E-2,-8.084154E-2,4.85846E-3,-2.2089375E-2,5.924156E-2],"split_indices":[3,0,0,3,2,3,3,0,2,0,0,0,0,0,0],"split_type":[0,0,0,0,0,0,0,0,0,0,0,0,0,0,0],"sum_hessian":[4.969605E2,3.3352664E0,4.9362524E2,4.8915668E2,4.468566E0,4.8391028E2,5.2463813E0,1.9952953E0,2.473271E0,3.8613138E2,9.77789E1,4.242235E0,1.0041463E0,1.0200839E0,1.453187E0],"tree_param":{"num_deleted":"0","num_feature":"4","num_nodes":"15","size_leaf_vector":"1"}},{"base_weights":[-1.8070972E-3,-7.687791E-3,7.438738E-2,1.5149678E-3,-8.20157E-2,8.381562E-3,-7.694533E-2,-3.5189737E-3,1.3340232E-2],"categories":[],"categories_nodes":[],"categories_segments":[],"categories_sizes":[],"default_left":[0,0,0,0,0,0,0,0,0],"id":99,"left_children":[1,3,-1,5,-1,7,-1,-1,-1],"loss_changes":[2.1872523E0,3.6992152E0,0E0,2.6006923E0,0E0,2.6559281E0,0E0,0E0,0E0],"parents":[2147483647,0,0,1,1,3,3,5,5],"right_children":[2,4,-1,6,-1,8,-1,-1,-1],"split_conditions":[1E0,5.0433685E2,7.438738E-2,9.5961E2,-8.20157E-2,7.9216E2,-7.694533E-2,-3.5189737E-3,1.3340232E-2],"split_indices":[1,2,0,3,0,3,0,0,0],"split_type":[0,0,0,0,0,0,0,0,0],"sum_hessian":[4.9648544E2,4.9358255E2,2.90287E0,4.8904138E2,4.5411882E0,4.857046E2,3.3367784E0,3.6071088E2,1.2499373E2],"tree_param":{"num_deleted":"0","num_feature":"4","num_nodes":"9","size_leaf_vector":"1"}}]},"name":"gbtree"},"learner_model_param":{"base_score":"2.4783587E-1","boost_from_average":"1","num_class":"0","num_feature":"4","num_target":"1"},"objective":{"name":"binary:logistic","reg_loss_param":{"scale_pos_weight":"10"}}},"version":[2,0,3]}